<?xml version="1.0"?>
<opencv_storage>
<my_svm type_id="opencv-ml-svm">
  <svm_type>C_SVC</svm_type>
  <kernel><type>RBF</type>
    <gamma>8.9999999999999997e-02</gamma></kernel>
  <C>10.</C>
  <term_criteria><epsilon>1.1920928955078125e-07</epsilon>
    <iterations>2147483647</iterations></term_criteria>
  <var_all>1764</var_all>
  <var_count>1764</var_count>
  <class_count>2</class_count>
  <class_labels type_id="opencv-matrix">
    <rows>1</rows>
    <cols>2</cols>
    <dt>i</dt>
    <data>
      0 1</data></class_labels>
  <sv_total>48</sv_total>
  <support_vectors>
    <_>
      3.74732609e-03 2.16630893e-03 4.64171218e-03 1.77118197e-01
      3.18161577e-01 3.18161577e-01 2.69758683e-02 1.79311205e-02
      5.01798792e-03 2.80708149e-02 1.96588486e-02 1.48626696e-02
      8.43968391e-02 3.18161577e-01 2.36940920e-01 3.18161577e-01
      2.26332396e-01 6.14586473e-02 4.12424095e-03 8.85863975e-03
      2.66404767e-02 1.43523723e-01 3.18161577e-01 3.18161577e-01
      2.32405607e-02 1.37369204e-02 3.03717866e-03 8.73900671e-03
      1.80834886e-02 5.72574213e-02 9.39314365e-02 3.18161577e-01
      2.16028064e-01 2.03576565e-01 1.14676036e-01 1.32574886e-02
      2.87670027e-02 2.92085446e-02 1.30225401e-02 3.67110036e-02
      6.48988262e-02 1.16431698e-01 3.02563459e-01 3.02563459e-01
      7.28536099e-02 4.00540270e-02 1.74199212e-02 4.58946591e-03
      3.45337503e-02 5.66688366e-02 1.43099815e-01 3.02563459e-01
      2.05437735e-01 1.18966453e-01 3.05110663e-02 1.47354864e-02
      4.33027521e-02 8.80101994e-02 8.26242343e-02 1.14912443e-01
      3.02563459e-01 2.84931570e-01 5.94402179e-02 9.74621326e-02
      5.45502044e-02 5.71970642e-02 1.40836388e-01 1.57600418e-01
      2.98184752e-01 3.02563459e-01 3.02563459e-01 2.70950824e-01
      2.24881489e-02 7.27603026e-03 3.77450115e-03 2.82309223e-02
      7.00949728e-02 1.55315697e-01 9.71981883e-02 6.74073547e-02
      6.03099093e-02 2.68040132e-02 1.00923572e-02 2.14367118e-02
      3.62358503e-02 1.07040182e-01 1.07628740e-01 4.23750058e-02
      2.42828038e-02 2.67338939e-02 1.14006191e-01 1.09184295e-01
      1.47696897e-01 1.08226530e-01 2.05687299e-01 2.68257678e-01
      2.68257678e-01 2.54431278e-01 2.44344443e-01 2.68257678e-01
      2.26511732e-01 2.68257678e-01 1.91543370e-01 2.68257678e-01
      2.68257678e-01 2.68257678e-01 1.77942991e-01 2.68257678e-01
      2.70238426e-02 6.37111627e-03 2.03304943e-02 3.46746594e-02
      9.90239084e-02 5.87259531e-02 1.97405927e-02 1.49290878e-02
      3.43875960e-02 4.61534932e-02 1.18980259e-02 3.13977301e-02
      4.64544743e-02 1.06118642e-01 7.67481625e-02 3.46237235e-02
      3.08770146e-02 5.59950843e-02 2.81277329e-01 1.92615896e-01
      2.16126442e-01 1.68056577e-01 2.26657778e-01 8.79171416e-02
      1.64118841e-01 8.62796679e-02 2.81277329e-01 2.81277329e-01
      9.44240168e-02 2.47155860e-01 2.74745733e-01 2.81277329e-01
      2.16924042e-01 2.81277329e-01 2.81277329e-01 2.81277329e-01
      9.02017951e-02 4.72581461e-02 8.23574364e-02 9.80382636e-02
      1.43978611e-01 1.09084390e-01 5.58487996e-02 4.04370613e-02
      5.63434586e-02 1.01094730e-01 5.59092462e-02 7.66262263e-02
      1.01124249e-01 1.89960450e-01 1.12548582e-01 5.23311123e-02
      7.39080608e-02 4.17965613e-02 2.86487490e-01 5.75353652e-02
      1.96951568e-01 2.20876604e-01 2.86487490e-01 2.86487490e-01
      2.86487490e-01 2.86487490e-01 2.86487490e-01 1.99467957e-01
      9.00032818e-02 1.17231034e-01 1.53205305e-01 2.86487490e-01
      2.00995460e-01 1.67157471e-01 1.03689797e-01 1.09835379e-01
      6.36934862e-02 6.35798797e-02 7.11962804e-02 6.71969578e-02
      1.85399428e-01 6.63482174e-02 5.04444093e-02 6.57599792e-02
      7.68124089e-02 2.12889031e-01 2.76921123e-01 2.23833531e-01
      1.34868160e-01 1.73441783e-01 1.27736539e-01 8.31739530e-02
      9.99416038e-02 2.13595003e-01 8.23037252e-02 1.85916618e-01
      1.72812775e-01 1.61288545e-01 1.75459936e-01 8.73300433e-02
      7.76019245e-02 8.31806734e-02 8.48515779e-02 2.69638211e-01
      2.76921123e-01 2.76921123e-01 2.48410210e-01 1.92967847e-01
      1.32154644e-01 1.34333938e-01 1.89191058e-01 2.76921123e-01
      1.67281479e-01 2.28194937e-01 1.22721069e-01 7.15037435e-02
      6.78065568e-02 8.68252143e-02 5.76729774e-02 1.42161772e-01
      1.93148181e-01 1.72131762e-01 2.28194937e-01 1.42759427e-01
      8.10543746e-02 1.28884584e-01 1.42611206e-01 7.90830627e-02
      1.60189778e-01 2.09197998e-01 2.08143130e-01 2.28194937e-01
      1.63313761e-01 9.92985666e-02 6.98518902e-02 7.99129382e-02
      9.08981413e-02 2.07526907e-01 2.28194937e-01 2.28194937e-01
      2.28194937e-01 2.28194937e-01 1.99876770e-01 2.23923504e-01
      1.19004063e-01 9.42598060e-02 1.87626585e-01 2.28194937e-01
      4.39865142e-03 3.92637355e-03 1.70876756e-02 8.11051354e-02
      3.33784699e-01 3.33784699e-01 3.63147445e-02 2.56189704e-03
      3.77396145e-03 3.46870301e-03 8.33745394e-03 3.57610099e-02
      8.04693550e-02 3.33784699e-01 3.30493897e-01 8.31372887e-02
      1.04932087e-02 3.23512615e-03 2.35565379e-03 2.36927499e-05
      2.83901952e-03 1.81334943e-01 3.33784699e-01 3.33784699e-01
      7.70164207e-02 8.09069537e-03 2.35565379e-03 1.12555979e-04
      1.41592376e-04 3.93848494e-03 1.10702991e-01 3.33784699e-01
      3.33784699e-01 1.81309968e-01 1.99556407e-02 1.12555979e-04
      1.51137765e-02 6.52454933e-03 3.31957303e-02 9.16918367e-02
      1.19555891e-01 8.87380689e-02 1.26514554e-01 7.41471425e-02
      2.43154839e-02 6.25726730e-02 2.31853068e-01 2.76592672e-01
      1.73551142e-01 2.39157125e-01 2.52096623e-01 2.76592672e-01
      2.76592672e-01 1.50005922e-01 3.28619569e-03 1.76325720e-03
      1.09037794e-02 3.91880758e-02 1.47729129e-01 2.12318212e-01
      9.71864313e-02 3.53536643e-02 5.92766423e-03 1.90031137e-02
      2.59319514e-01 2.76592672e-01 2.76592672e-01 2.76592672e-01
      2.65137613e-01 1.66419327e-01 8.33674222e-02 3.57363410e-02
      3.70953791e-02 1.71587080e-01 1.83963850e-01 4.87940982e-02
      1.00350477e-01 1.39054403e-01 1.62376747e-01 6.71460256e-02
      7.02614412e-02 1.51563331e-01 1.96948811e-01 2.29881555e-01
      9.79418680e-02 2.30767488e-01 2.27768630e-01 2.30767488e-01
      2.23266348e-01 1.76052213e-01 1.55327357e-02 1.92713782e-01
      2.30767488e-01 1.15077287e-01 1.95568785e-01 1.31393924e-01
      9.00442898e-02 3.91779542e-02 3.06988917e-02 1.64582178e-01
      1.70168802e-01 1.81129456e-01 7.71815404e-02 2.30767488e-01
      2.30767488e-01 2.30767488e-01 2.30767488e-01 1.55596972e-01
      1.74323007e-01 1.32082000e-01 1.33617163e-01 1.30698219e-01
      1.97681203e-01 1.08374178e-01 2.38795742e-01 1.62237674e-01
      1.78529426e-01 1.23830706e-01 5.71704134e-02 1.22094229e-01
      2.08510205e-01 2.38795742e-01 1.99328527e-01 2.38795742e-01
      1.83331132e-01 1.39978781e-01 1.71850219e-01 6.45167679e-02
      8.51566941e-02 1.18169203e-01 2.38795742e-01 1.66100115e-01
      2.38795742e-01 1.94823489e-01 1.31826952e-01 5.05734347e-02
      5.18082567e-02 7.69407749e-02 2.38795742e-01 2.38795742e-01
      2.38795742e-01 1.44467011e-01 9.43694711e-02 3.07471510e-02
      8.62721056e-02 1.37460781e-02 7.15575889e-02 1.45198643e-01
      3.14151496e-01 3.14151496e-01 3.14151496e-01 2.18253255e-01
      9.20502022e-02 4.52687070e-02 2.23613400e-02 3.10782455e-02
      4.85080965e-02 1.78209394e-01 1.52764961e-01 1.09968014e-01
      2.84936335e-02 3.16881016e-02 1.82237048e-02 2.75952965e-02
      5.72901480e-02 3.14151496e-01 3.14151496e-01 3.14151496e-01
      2.11314112e-01 1.06008537e-01 1.29498960e-02 1.86803024e-02
      1.27900764e-02 3.74963954e-02 1.10027924e-01 3.14151496e-01
      2.41179302e-01 8.65295976e-02 2.92041972e-02 1.54876271e-02
      8.19019750e-02 1.38566330e-01 1.33427545e-01 1.73316538e-01
      1.83930218e-01 9.06682089e-02 1.57234356e-01 6.72696754e-02
      5.00140712e-02 2.44085342e-01 2.44085342e-01 2.44085342e-01
      2.44085342e-01 2.39471227e-01 1.59286350e-01 2.44085342e-01
      1.76879689e-01 1.70321688e-01 8.61883163e-02 3.99961732e-02
      4.02205959e-02 8.41949433e-02 1.68276921e-01 8.97053257e-02
      1.76514491e-01 6.96086138e-02 5.03580198e-02 2.44085342e-01
      2.03873008e-01 1.23134591e-01 1.69669166e-01 2.24514231e-01
      1.53104603e-01 2.44085342e-01 1.22319013e-01 1.51628211e-01
      1.58039525e-01 2.44490653e-01 2.09505126e-01 1.74159184e-01
      1.08021609e-01 7.91050941e-02 8.28032121e-02 1.33308351e-01
      2.01448113e-01 1.42444268e-01 2.44490653e-01 2.44490653e-01
      2.44490653e-01 2.44490653e-01 1.20875984e-01 6.25073612e-02
      8.42891335e-02 1.80029228e-01 1.63057625e-01 1.76808149e-01
      1.31685629e-01 1.45093635e-01 1.44677654e-01 7.41215646e-02
      7.34019205e-02 6.16053529e-02 1.31116033e-01 1.10661127e-01
      1.43409118e-01 1.79838181e-01 2.44490653e-01 2.44490653e-01
      2.44490653e-01 1.51467949e-01 8.34592953e-02 1.20780095e-01
      1.65942870e-03 0. 6.28182804e-03 2.54031003e-01 3.21157306e-01
      2.49463052e-01 4.96191755e-02 1.98104251e-02 1.88457617e-03 0. 0.
      5.16010914e-03 1.48409307e-01 3.21157306e-01 3.21157306e-01
      1.51236638e-01 7.89982080e-02 7.84357253e-04 5.33362292e-03
      1.53591239e-03 9.36493091e-03 1.31501570e-01 3.21157306e-01
      3.21157306e-01 8.70259553e-02 1.85289178e-02 1.47228446e-02
      5.15184458e-03 3.23790940e-03 1.38103394e-02 7.84873739e-02
      3.21157306e-01 3.21157306e-01 2.29851857e-01 9.42536667e-02
      1.78599786e-02 1.30579341e-02 7.55989086e-03 1.08565930e-02
      2.17426866e-02 1.33571893e-01 2.81672627e-01 1.39831483e-01
      1.12160049e-01 2.04042196e-02 3.42833996e-02 5.78571633e-02
      2.49804318e-01 3.14910144e-01 3.23012769e-01 3.23012769e-01
      1.29320204e-01 7.28124678e-02 5.83194718e-02 4.39046472e-02
      3.56239229e-02 1.37345195e-02 1.51733281e-02 1.19207524e-01
      2.99321920e-01 2.43668392e-01 1.44155279e-01 2.76352596e-02
      9.08374786e-02 6.34180680e-02 4.20448706e-02 1.41805425e-01
      3.23012769e-01 3.23012769e-01 1.46368980e-01 9.22707766e-02
      7.02119768e-02 1.24623673e-02 6.79465681e-02 1.93273798e-01
      1.91019580e-01 2.96130329e-01 2.96130329e-01 9.49568450e-02
      3.41299959e-02 2.93431301e-02 2.18845844e-01 6.36450946e-02
      8.56395215e-02 9.94942039e-02 2.96130329e-01 2.78954357e-01
      2.35104471e-01 1.69609651e-01 1.83332741e-01 1.13524422e-02
      7.79139996e-03 1.42855579e-02 8.25171098e-02 2.96130329e-01
      2.96130329e-01 5.82285374e-02 1.77103188e-02 1.21485302e-02
      7.39691127e-03 6.67576678e-03 2.64787897e-02 1.34506375e-01
      2.96130329e-01 2.85560995e-01 6.84793964e-02 1.97255574e-02
      2.84821028e-03 1.47140861e-01 2.78824586e-02 5.12534417e-02
      9.79003757e-02 3.05231869e-01 1.42405570e-01 9.96926650e-02
      6.92908764e-02 1.08777896e-01 4.30881269e-02 7.68333524e-02
      8.74187499e-02 3.31361324e-01 3.31361324e-01 2.38690048e-01
      7.41485208e-02 5.34013584e-02 2.22907066e-02 1.26474816e-02
      1.80970244e-02 4.32561710e-02 1.34497091e-01 3.13063651e-01
      1.62274107e-01 3.45295519e-02 8.93663242e-03 8.42598174e-03
      3.72442417e-02 9.39362720e-02 1.47011474e-01 2.66067088e-01
      3.31361324e-01 3.31361324e-01 2.20860973e-01 4.97991554e-02
      4.00146842e-02 5.68836089e-03 4.45012525e-02 6.16681054e-02
      2.96080559e-01 3.05940747e-01 2.53413200e-01 1.53011367e-01
      6.68532401e-02 5.25802141e-03 5.83915599e-03 1.69022176e-02
      3.88070643e-02 1.11250527e-01 2.96286345e-01 1.32052362e-01
      1.25153601e-01 4.93220203e-02 1.21099064e-02 1.43268239e-02
      5.06246090e-02 7.57069960e-02 1.92380682e-01 3.05940747e-01
      3.05940747e-01 3.05940747e-01 1.00057639e-01 2.78230403e-02
      1.63481012e-02 1.98056735e-02 2.51005329e-02 1.10476457e-01
      3.05940747e-01 1.82251722e-01 3.05940747e-01 9.24011320e-02
      2.29075812e-02 6.76844046e-02 4.23801690e-02 3.95990089e-02
      9.69216228e-02 2.53635526e-01 9.19363275e-02 8.65409598e-02
      7.15863034e-02 7.17471540e-02 2.07434997e-01 1.16287678e-01
      1.08052589e-01 1.95167631e-01 2.64030248e-01 1.14917941e-01
      1.44516915e-01 8.76774192e-02 1.89812005e-01 7.49770179e-02
      9.17868540e-02 7.60769024e-02 1.84018105e-01 2.64030248e-01
      2.13276386e-01 1.69807509e-01 1.10356286e-01 8.03095251e-02
      1.36740431e-01 1.69121712e-01 1.43797621e-01 2.64030248e-01
      2.64030248e-01 2.64030248e-01 2.13917211e-01 2.50582457e-01
      1.83347404e-01 1.50567859e-01 9.31286290e-02 8.88115317e-02
      1.34869590e-01 1.72788516e-01 5.96821494e-02 3.97758819e-02
      6.37654364e-02 1.33540139e-01 1.83557898e-01 1.27412677e-01
      1.69450909e-01 1.77767783e-01 2.39329889e-01 2.39329889e-01
      1.17362715e-01 1.32685289e-01 1.88917026e-01 1.29505962e-01
      1.26587927e-01 1.03888705e-01 2.39329889e-01 2.39329889e-01
      1.29157469e-01 8.67230296e-02 1.55078009e-01 1.00781448e-01
      1.87374502e-01 1.72287822e-01 1.93326741e-01 2.36235261e-01
      2.39329889e-01 2.39329889e-01 1.36506781e-01 2.23577976e-01
      1.83603987e-01 6.83885580e-03 5.41425310e-03 8.71188287e-03
      7.89653882e-02 3.34814280e-01 3.34814280e-01 1.19805790e-01
      8.87306221e-03 1.67932380e-02 8.14854540e-03 1.04578072e-02
      1.99415870e-02 5.91541156e-02 3.34814280e-01 3.34814280e-01
      1.93257943e-01 3.62203605e-02 2.03512814e-02 4.82807541e-03
      1.34649212e-02 9.90518741e-03 1.17001265e-01 3.34814280e-01
      3.34814280e-01 4.40742336e-02 3.20717180e-03 3.79843405e-03
      6.61048759e-03 1.44568989e-02 2.42658816e-02 7.72482678e-02
      3.34814280e-01 3.34814280e-01 1.01705752e-01 4.93667759e-02
      7.19728693e-03 5.36239855e-02 6.11237586e-02 3.93354669e-02
      5.83736785e-02 2.09847793e-01 2.45171517e-01 1.19558848e-01
      5.89965284e-02 1.82751659e-02 8.89893845e-02 8.84822905e-02
      8.11057985e-02 1.77420855e-01 3.42419714e-01 3.42419714e-01
      1.25575989e-01 6.61046803e-02 3.52692157e-02 5.82417734e-02
      5.87665923e-02 9.25489664e-02 8.65954682e-02 3.01568836e-01
      2.17928976e-01 6.03964068e-02 7.78081194e-02 3.83815952e-02
      9.99705344e-02 7.65691325e-02 1.88870370e-01 1.79556221e-01
      3.42419714e-01 3.42419714e-01 1.96530059e-01 1.25153795e-01
      8.93719867e-02 9.14269220e-03 1.04406951e-02 1.64691526e-02
      8.34174454e-02 3.40397865e-01 3.40397865e-01 6.57946989e-02
      1.50155844e-02 5.14383893e-03 3.57513287e-04 4.99780942e-03
      2.52502132e-02 1.39965653e-01 3.40397865e-01 2.91438848e-01
      6.99703544e-02 1.37588009e-02 0. 2.06266660e-02 1.58260763e-02
      4.36559021e-02 7.83900842e-02 3.40397865e-01 3.40397865e-01
      1.33393347e-01 4.96076345e-02 3.25180143e-02 6.39362400e-03
      2.10076403e-02 2.12014075e-02 1.34830296e-01 3.40397865e-01
      3.40397865e-01 1.16107889e-01 2.37254705e-02 5.69171645e-03
      8.75541195e-03 1.76167283e-02 5.75784221e-02 1.34442165e-01
      2.68138140e-01 1.68268442e-01 5.34118824e-02 2.45036408e-02
      1.28839919e-02 5.07391468e-02 8.64231139e-02 2.42957786e-01
      1.49886563e-01 2.82887280e-01 2.82887280e-01 2.82887280e-01
      1.61362514e-01 8.30080286e-02 6.79947995e-03 1.90619621e-02
      2.87290402e-02 1.19499996e-01 2.52972573e-01 2.24872544e-01
      9.61008668e-02 4.74081896e-02 1.28322449e-02 5.28242588e-02
      6.46489337e-02 1.58021823e-01 1.38463452e-01 2.82887280e-01
      2.82887280e-01 2.82887280e-01 2.41360947e-01 1.25911683e-01
      1.75124239e-02 4.28239182e-02 1.29843712e-01 9.19711515e-02
      2.39558131e-01 2.39558131e-01 2.38480970e-01 5.69646545e-02
      3.49849947e-02 1.14723600e-01 8.08193609e-02 1.16803192e-01
      1.10661395e-01 2.39558131e-01 1.21930361e-01 1.28840744e-01
      3.76603045e-02 1.06615230e-01 4.87491414e-02 8.25630128e-02
      2.17871934e-01 1.17590211e-01 2.39558131e-01 2.39558131e-01
      2.39558131e-01 9.27711204e-02 9.08605158e-02 2.39558131e-01
      2.39558131e-01 2.39558131e-01 1.63246885e-01 2.39558131e-01
      1.54242396e-01 2.14020550e-01 6.40758425e-02 2.39558131e-01
      2.11062148e-01 7.16015697e-02 5.90329133e-02 6.68000802e-02
      1.28999561e-01 4.85601574e-02 9.57079604e-02 9.73056629e-02
      2.09518686e-01 7.96793774e-02 7.70646557e-02 7.87680671e-02
      1.08226523e-01 8.64271447e-02 7.04346299e-02 1.47283629e-01
      1.46686032e-01 9.76288244e-02 2.53062338e-01 2.50639319e-01
      2.34253168e-01 7.53476992e-02 8.43327045e-02 8.81009847e-02
      2.53062338e-01 2.18933895e-01 2.53062338e-01 2.37957031e-01
      2.31185183e-01 2.53062338e-01 6.91802949e-02 1.52183443e-01
      7.65745416e-02 2.53062338e-01 2.53062338e-01 2.20561534e-01
      5.42974286e-02 1.45504430e-01 1.99605554e-01 2.32122570e-01
      1.96777195e-01 1.11090750e-01 1.35278493e-01 1.48848310e-01
      4.32093255e-02 4.66548987e-02 9.56269354e-02 1.11147180e-01
      1.80231750e-01 2.32122570e-01 2.32122570e-01 1.46080241e-01
      1.36936501e-01 5.67398034e-02 2.32122570e-01 2.32122570e-01
      2.32122570e-01 1.37328014e-01 2.32122570e-01 8.35958570e-02
      2.32122570e-01 2.32122570e-01 1.47550195e-01 1.32681057e-01
      9.29572433e-02 1.41009197e-01 1.58873573e-01 1.80328608e-01
      1.71819389e-01 1.30457133e-01 1.91304773e-01 1.45912841e-01
      1.54035157e-02 2.84569096e-02 2.75793318e-02 4.47708853e-02
      2.70695537e-01 2.12026447e-01 1.43112801e-02 1.62222714e-03
      2.43320665e-03 3.92263830e-02 5.60659915e-02 5.15383743e-02
      2.68237181e-02 2.70695537e-01 2.70695537e-01 5.19366749e-02
      3.49978320e-02 2.38585956e-02 2.70695537e-01 2.70695537e-01
      2.53719270e-01 2.70511974e-02 2.02272981e-01 1.37510255e-01
      2.03099642e-02 2.01075096e-02 2.70695537e-01 2.70695537e-01
      2.70695537e-01 2.70695537e-01 2.02461332e-02 2.23404139e-01
      1.38010025e-01 2.12500636e-02 8.62611160e-02 2.70695537e-01
      1.16664231e-01 7.31267110e-02 6.81777000e-02 6.04875833e-02
      2.09372431e-01 1.66225865e-01 4.73668985e-02 6.24822825e-02
      7.81287178e-02 2.01464489e-01 1.29668400e-01 1.13459833e-01
      1.32287368e-01 2.59385407e-01 2.57636696e-01 1.00071281e-01
      9.84804258e-02 1.25487655e-01 2.59385407e-01 2.59385407e-01
      1.65956989e-01 8.91813114e-02 1.62309304e-01 1.18575364e-01
      3.01612839e-02 1.45318657e-01 2.59385407e-01 2.59385407e-01
      2.59385407e-01 1.04408450e-01 1.61008701e-01 2.59385407e-01
      1.70448214e-01 5.23772389e-02 1.08651921e-01 2.17930213e-01
      6.52515963e-02 1.04783818e-01 6.52298778e-02 8.09703022e-02
      2.51376927e-01 2.51376927e-01 1.01633221e-01 6.60426766e-02
      4.55999859e-02 2.11252496e-02 1.48339719e-01 8.88879448e-02
      1.51024774e-01 2.51376927e-01 2.51376927e-01 1.21327534e-01
      4.44401279e-02 2.05954164e-02 1.57699108e-01 1.90085411e-01
      1.01989023e-01 1.01789318e-01 2.51376927e-01 1.41548306e-01
      8.64383951e-02 1.44208282e-01 1.15477741e-01 7.44943470e-02
      2.51376927e-01 1.86002210e-01 2.51376927e-01 2.51376927e-01
      2.20766142e-01 1.61296338e-01 2.51376927e-01 2.39525348e-01
      2.95851696e-02 1.22223273e-01 9.34508666e-02 1.55024990e-01
      1.95808306e-01 2.11374015e-01 1.25980258e-01 3.25134136e-02
      1.47573454e-02 1.42696515e-01 1.70074403e-01 1.94095522e-01
      1.11446187e-01 2.41640165e-01 2.41640165e-01 2.41640165e-01
      1.39912277e-01 9.12788138e-02 8.54310319e-02 2.41640165e-01
      1.91457123e-01 2.41640165e-01 2.41640165e-01 1.79977715e-01
      1.05762847e-01 9.61929411e-02 1.27246931e-01 1.77133292e-01
      2.41640165e-01 2.37821907e-01 1.27896294e-01 2.10804224e-01
      1.78889871e-01 1.02466650e-01 7.00404420e-02 6.08834848e-02
      1.08248718e-01 1.49143547e-01 2.27522835e-01 5.01929224e-02
      2.27522835e-01 2.27522835e-01 1.98910952e-01 1.00532234e-01
      9.76158753e-02 2.27522835e-01 2.27522835e-01 2.27522835e-01
      6.95083588e-02 1.77671790e-01 1.61571145e-01 2.24762321e-01
      9.56598073e-02 2.27522835e-01 1.24706298e-01 1.20495304e-01
      1.36016071e-01 4.63539958e-02 1.65758193e-01 1.35011584e-01
      9.19981599e-02 9.82709974e-02 7.26872310e-02 2.21288040e-01
      2.03059003e-01 2.27522835e-01 1.12335630e-01 1.89136177e-01
      1.74660832e-01 1.83737889e-01 1.38067529e-01 1.54881686e-01
      2.45148495e-01 2.45148495e-01 2.45148495e-01 3.31082866e-02
      4.68985513e-02 9.26142335e-02 2.45148495e-01 1.39214739e-01
      2.45148495e-01 2.45148495e-01 2.45148495e-01 2.45148495e-01
      3.37269194e-02 1.32870629e-01 6.76960945e-02 2.45148495e-01
      1.99803919e-01 2.18362376e-01 2.11099863e-01 1.61870405e-01
      1.61869675e-01 7.80049413e-02 9.09628645e-02 9.56267342e-02
      1.59142718e-01 8.03291127e-02 1.75977245e-01 1.57535717e-01
      1.53058931e-01 1.45614281e-01 6.53087944e-02 5.19031212e-02
      5.18263727e-02 1.57386467e-01 8.24949294e-02 1.43356264e-01
      2.17460662e-01 2.17460662e-01 2.17460662e-01 5.36294356e-02
      1.58888668e-01 6.11177310e-02 2.01939717e-01 2.17460662e-01
      2.12495014e-01 1.90157101e-01 1.26761377e-01 9.90182608e-02
      1.25720546e-01 8.85958672e-02 8.18398669e-02 1.41284555e-01
      2.14287728e-01 1.92461863e-01 2.09314883e-01 2.00025216e-01
      1.66752636e-01 1.16830856e-01 6.99431002e-02 7.21873716e-02
      1.92703053e-01 2.17460662e-01 2.17460662e-01 1.49663359e-01
      1.65015355e-01 1.21934004e-01 1.48745835e-01 1.27666101e-01
      1.25674427e-01 1.46885559e-01 2.02231109e-01 2.17460662e-01
      2.84959733e-01 2.84959733e-01 2.65938878e-01 4.47010435e-02
      1.96356028e-01 3.27465385e-02 6.26956625e-03 5.23129255e-02
      2.84959733e-01 2.84959733e-01 2.68128365e-01 1.99488699e-01
      2.80064959e-02 2.06980944e-01 3.08423266e-02 1.09883724e-02
      1.33368924e-01 2.84959733e-01 1.04114629e-01 4.10115309e-02
      6.18136451e-02 6.47081584e-02 2.84959733e-01 1.37637064e-01
      5.01709012e-03 2.60532424e-02 2.38670379e-01 4.50860411e-02
      2.01539341e-02 3.24041620e-02 7.41766617e-02 2.84959733e-01
      1.27314389e-01 2.47936007e-02 5.22299372e-02 1.17281236e-01
      2.65001267e-01 2.34463483e-01 1.18494034e-01 6.46233708e-02
      2.04958841e-01 1.94980592e-01 4.50815037e-02 1.94589540e-01
      2.65001267e-01 2.30300292e-01 1.88279718e-01 6.15950115e-02
      1.26662806e-01 2.65001267e-01 2.65001267e-01 6.16699792e-02
      9.17127281e-02 1.99060842e-01 3.19702588e-02 2.43688878e-02
      4.17819656e-02 1.21199518e-01 2.65001267e-01 2.65001267e-01
      5.59735186e-02 4.81701121e-02 5.99713549e-02 8.39707907e-03
      1.92014091e-02 3.29214819e-02 2.14319944e-01 2.65001267e-01
      2.65001267e-01 7.91342780e-02 1.78664271e-02 3.36214080e-02
      1.29233956e-01 1.18735135e-01 8.85360613e-02 1.00981832e-01
      1.74080908e-01 1.29751787e-01 6.92314580e-02 1.33072317e-01
      1.77240297e-01 1.74979880e-01 2.65433878e-01 1.25170633e-01
      2.65433878e-01 2.65433878e-01 2.65433878e-01 1.44295037e-01
      2.65433878e-01 2.65433878e-01 2.64251269e-02 5.42358719e-02
      5.47755025e-02 1.21941254e-01 1.74040794e-01 1.07613511e-01
      3.88672575e-02 1.36705823e-02 3.04755252e-02 1.86841920e-01
      9.99713391e-02 6.98605105e-02 2.65433878e-01 2.65433878e-01
      1.66714609e-01 2.94912923e-02 4.24125418e-02 2.65433878e-01
      1.60717666e-01 1.82258934e-01 7.72868693e-02 2.45602563e-01
      2.45602563e-01 2.45602563e-01 6.97182864e-02 1.18972458e-01
      2.45602563e-01 1.12342581e-01 1.23892851e-01 8.49472880e-02
      1.34265110e-01 1.85554415e-01 1.71706319e-01 6.23703748e-02
      6.34653196e-02 1.08574256e-01 2.39974782e-01 5.28925844e-02
      3.04693226e-02 2.45602563e-01 2.45602563e-01 1.99439466e-01
      3.07249539e-02 4.07591127e-02 2.45602563e-01 1.50564790e-01
      4.22370806e-02 1.17147222e-01 2.16565564e-01 2.45602563e-01
      1.83740556e-01 8.90243128e-02 1.01307988e-01 2.31058553e-01
      1.10012062e-01 4.42062356e-02 3.70108746e-02 1.19347550e-01
      1.71982616e-01 1.50280505e-01 6.84803426e-02 1.24479324e-01
      8.74639228e-02 2.56278843e-01 6.36882037e-02 1.19355388e-01
      2.56278843e-01 2.56278843e-01 2.49863639e-01 1.86107501e-01
      1.88327223e-01 2.50697851e-01 7.35543221e-02 4.01795134e-02
      7.36797154e-02 1.24147482e-01 2.02773124e-01 1.25630423e-01
      8.88683349e-02 7.15266317e-02 9.65935662e-02 2.56278843e-01
      7.56221116e-02 1.52738482e-01 2.56278843e-01 2.56278843e-01
      2.25758329e-01 1.26614794e-01 1.26461089e-01 2.46706262e-01
      2.40225390e-01 9.48532894e-02 1.09933324e-01 2.40225390e-01
      2.13041157e-01 1.55045807e-01 1.48083508e-01 1.05430163e-01
      2.21229434e-01 1.69136837e-01 1.03560112e-01 8.87356028e-02
      9.04601142e-02 6.58575371e-02 8.08841586e-02 1.39586806e-01
      1.08451970e-01 1.92970291e-01 2.40225390e-01 1.07326552e-01
      1.71947286e-01 2.40225390e-01 2.40225390e-01 1.99404225e-01
      1.41875580e-01 1.64107293e-01 2.40225390e-01 2.22842410e-01
      7.93077722e-02 9.45762172e-02 1.55639723e-01 1.24709010e-01
      9.13178697e-02 1.32342964e-01 1.67226374e-01 2.40225390e-01
      2.11030513e-01 1.01656951e-01 1.49261579e-01 1.28339648e-01
      1.15527458e-01 1.07099757e-01 1.76763833e-01 2.11030513e-01
      2.11030513e-01 1.58241570e-01 1.50999412e-01 1.10861845e-01
      1.48731038e-01 1.70761898e-01 2.05327913e-01 1.84488729e-01
      1.90718412e-01 2.11030513e-01 2.11030513e-01 8.03291127e-02
      9.51310396e-02 1.92128539e-01 1.65962130e-01 1.21038467e-01
      1.80981591e-01 2.11030513e-01 2.11030513e-01 2.11030513e-01
      1.48470253e-01 8.74027833e-02 1.74672708e-01 2.09619686e-01
      1.26680166e-01 1.66505679e-01 1.28784299e-01 1.43654600e-01
      3.81870661e-03 2.47782213e-04 4.37162351e-04 3.30332108e-02
      3.56872886e-01 3.56872886e-01 6.00180067e-02 1.26155489e-03
      3.76736326e-03 6.90961536e-03 6.57042721e-03 1.41804507e-02
      5.41030504e-02 3.56872886e-01 3.56872886e-01 1.06427573e-01
      2.32665110e-02 4.16402752e-03 4.62107547e-03 0. 2.91441538e-05
      4.22412122e-04 2.41620049e-01 3.56872886e-01 1.96166337e-01
      4.45652148e-03 4.62107547e-03 1.37832137e-02 1.00198910e-02
      5.46789169e-03 9.52595193e-03 2.84404635e-01 3.56872886e-01
      1.83142290e-01 2.58944072e-02 4.85902280e-03 1.09720929e-02
      7.53584132e-03 2.42000110e-02 9.59093943e-02 3.23294073e-01
      3.23294073e-01 1.13109626e-01 3.11688017e-02 8.16241279e-03
      5.81731182e-03 5.88143989e-03 1.72400568e-02 1.88957363e-01
      3.23294073e-01 3.23294073e-01 1.15817338e-01 1.79480556e-02
      1.61897969e-02 2.18289830e-02 1.70615893e-02 7.08536291e-03
      3.10170464e-02 3.23294073e-01 3.23294073e-01 2.02148199e-01
      4.55489382e-02 1.09281503e-02 2.08134167e-02 7.15982867e-03
      4.37487010e-03 9.19505581e-02 3.23294073e-01 3.23294073e-01
      1.72730252e-01 4.78254035e-02 2.89166253e-02 4.13740948e-02
      8.50059465e-02 5.10308407e-02 2.08156779e-01 2.58814156e-01
      2.58814156e-01 1.08316980e-01 4.88737784e-02 6.29002377e-02
      2.43062779e-01 2.07417607e-01 1.30281195e-01 2.58814156e-01
      2.58814156e-01 1.95072964e-01 7.67227113e-02 8.51206854e-02
      1.91662192e-01 1.13030255e-01 1.54849142e-01 4.26243842e-02
      8.99601802e-02 2.58814156e-01 2.58814156e-01 1.62243232e-01
      1.07619546e-01 1.10433914e-01 2.09777057e-01 2.58814156e-01
      1.12247057e-01 7.34453127e-02 1.94712192e-01 1.00118294e-01
      8.45106319e-02 1.26545072e-01 1.36822477e-01 2.27463990e-01
      6.15048967e-02 7.23036304e-02 1.99927390e-01 2.37570912e-01
      1.18314482e-01 2.33226866e-02 6.92745969e-02 2.00868428e-01
      2.37570912e-01 8.79149511e-02 2.25790486e-01 2.13199317e-01
      2.37570912e-01 2.37570912e-01 1.15176074e-01 1.68631136e-01
      2.24003807e-01 1.03739142e-01 6.57597929e-02 6.22518882e-02
      6.55080453e-02 1.70076445e-01 8.01819265e-02 3.68131958e-02
      8.20315927e-02 1.20337725e-01 2.37570912e-01 1.13993384e-01
      2.11125404e-01 1.76096141e-01 2.37570912e-01 2.37570912e-01
      1.07526921e-01 1.69947922e-01 1.89459786e-01 1.17370434e-01
      5.91310114e-02 1.24994099e-01 1.14370070e-01 2.32649922e-01
      1.94726363e-01 1.42876029e-01 1.22638233e-01 1.05095021e-01
      2.32649922e-01 9.14872661e-02 1.64235637e-01 2.32649922e-01
      2.32649922e-01 2.32649922e-01 1.80594116e-01 2.18607739e-01
      2.14396089e-01 1.45482868e-01 7.44696259e-02 1.24382429e-01
      8.33981261e-02 2.21248791e-01 2.32649922e-01 9.42962617e-02
      1.12597890e-01 1.04640879e-01 1.50289714e-01 9.30639505e-02
      1.02812469e-01 1.58540905e-01 2.32649922e-01 2.10667893e-01
      1.40309766e-01 1.60755187e-01 1.98029086e-01 2.34242275e-01
      1.22573331e-01 1.47924155e-01 2.34242275e-01 2.34242275e-01
      1.67295933e-01 1.02992915e-01 1.65047884e-01 2.16611341e-01
      1.73887923e-01 7.90977404e-02 9.28879157e-02 1.78448960e-01
      1.82274103e-01 9.20506418e-02 8.85183215e-02 9.30549875e-02
      1.78944737e-01 2.15777099e-01 1.06605209e-01 6.93650544e-02
      2.12884650e-01 2.34242275e-01 1.37927249e-01 1.17646120e-01
      1.47017226e-01 2.34242275e-01 1.48145258e-01 1.22938089e-01
      1.40559763e-01 1.15610853e-01 2.34242275e-01 1.41307235e-01
      1.83630049e-01 1.01615705e-01 2.34242275e-01 2.10517988e-01
      6.82007149e-02 8.01195055e-02 1.36342734e-01 1.15425877e-01
      1.09367043e-01 1.01101629e-01 9.78051201e-02 2.06647247e-01
      2.29274064e-01 2.19018191e-01 9.59507078e-02 9.49110910e-02
      1.39541969e-01 8.81022364e-02 8.53333026e-02 6.84596151e-02
      1.67472124e-01 2.23267734e-01 1.16590641e-01 1.87483355e-01
      8.96972418e-02 1.43601045e-01 1.41451269e-01 2.02539474e-01
      1.14018500e-01 2.29274064e-01 2.29274064e-01 2.29274064e-01
      1.37500212e-01 1.54231533e-01 2.29274064e-01 2.26315752e-01
      2.29274064e-01 1.98381245e-01 2.29274064e-01</_>
    <_>
      2.59882301e-01 1.08273722e-01 6.42785355e-02 4.75194566e-02
      5.63526824e-02 8.50703791e-02 8.41598362e-02 7.63920918e-02
      2.59882301e-01 2.59882301e-01 1.48796856e-01 1.33716911e-01
      1.90789938e-01 1.46339998e-01 7.53239319e-02 5.25467172e-02
      3.83668467e-02 2.59882301e-01 1.12327836e-01 1.54054314e-01
      1.04105294e-01 9.98739004e-02 9.11140665e-02 1.29381359e-01
      1.85428977e-01 1.68855295e-01 1.47032961e-01 2.06680164e-01
      1.07155025e-01 1.21369243e-01 2.59882301e-01 2.59882301e-01
      1.51565969e-01 2.22000077e-01 2.59882301e-01 2.59882301e-01
      1.50142416e-01 1.96102336e-02 2.70538107e-02 9.20037478e-02
      4.41671684e-02 1.72988400e-02 5.16945571e-02 2.98981667e-02
      1.32181048e-01 3.23035896e-01 3.02979071e-02 3.22587900e-02
      8.25815946e-02 3.51331159e-02 2.03817468e-02 9.63795036e-02
      5.98567128e-02 2.91642517e-01 1.89943448e-01 1.10078063e-02
      3.69938277e-02 2.08541155e-01 1.36753991e-01 3.37851234e-02
      1.86039969e-01 2.34322578e-01 2.45478600e-01 3.23035896e-01
      2.64155976e-02 5.55987284e-02 2.19416529e-01 8.05041268e-02
      4.63926047e-02 3.23035896e-01 3.23035896e-01 3.23035896e-01
      2.45143920e-01 1.99543573e-02 1.59292892e-02 1.66440159e-02
      1.02677420e-02 7.21081812e-03 3.31755951e-02 2.85581220e-02
      2.08649397e-01 1.83726758e-01 1.86232049e-02 2.06036940e-02
      1.69907156e-02 6.67967461e-03 7.26374099e-03 3.94739881e-02
      4.20623533e-02 1.92453623e-01 3.06580067e-01 4.22209799e-02
      2.18772795e-02 6.15318231e-02 1.88234989e-02 3.01243365e-02
      2.86134541e-01 3.06580067e-01 3.06580067e-01 3.06580067e-01
      1.29894197e-01 1.67494953e-01 1.19355738e-01 7.39302635e-02
      5.71408160e-02 3.06580067e-01 3.06580067e-01 3.06580067e-01
      1.42118707e-01 2.49081738e-02 2.58328803e-02 1.58193763e-02
      1.69829093e-02 4.55866102e-03 2.22531129e-02 3.21724415e-02
      1.39963478e-01 1.60648257e-01 4.50278930e-02 5.46008684e-02
      2.24913340e-02 3.72587964e-02 1.09236976e-02 7.81570934e-03
      3.33840810e-02 1.26528487e-01 2.49294862e-01 1.24508932e-01
      2.49294862e-01 2.49294862e-01 1.88669980e-01 8.12109932e-02
      2.49294862e-01 2.49294862e-01 2.49294862e-01 2.49294862e-01
      1.24121718e-01 2.39649728e-01 2.49294862e-01 2.49294862e-01
      2.12299854e-01 2.31764495e-01 2.31367990e-01 2.49294862e-01
      1.92275345e-01 6.52189031e-02 4.39703986e-02 4.16089334e-02
      4.61054295e-02 1.14206299e-02 5.03301341e-03 5.92418872e-02
      1.61341488e-01 1.69344351e-01 4.98367660e-02 2.93543544e-02
      4.00396138e-02 9.34717059e-02 1.12670111e-02 1.61202960e-02
      4.73286696e-02 1.67242080e-01 2.60647953e-01 2.25734025e-01
      1.34881094e-01 2.54987806e-01 2.60647953e-01 2.05322996e-01
      1.58166558e-01 2.60647953e-01 2.60647953e-01 2.60647953e-01
      1.73527822e-01 6.13805801e-02 2.60647953e-01 2.60647953e-01
      1.47742137e-01 1.30389243e-01 1.92866072e-01 2.46811956e-01
      2.45086297e-01 5.03632128e-02 4.31627966e-02 2.93401368e-02
      1.68640956e-01 8.09226483e-02 1.64867476e-01 1.01064205e-01
      2.80605882e-01 1.60794288e-01 2.31574364e-02 2.41060928e-02
      2.99054794e-02 5.58255538e-02 1.63828105e-01 2.80605882e-01
      1.72228575e-01 2.80605882e-01 1.44299924e-01 1.10504426e-01
      7.52882883e-02 2.29623094e-01 2.80605882e-01 2.74230152e-01
      2.80605882e-01 1.26686111e-01 1.56780839e-01 1.36215007e-02
      4.30044718e-02 5.46677448e-02 1.03749014e-01 1.11491881e-01
      2.50712335e-01 2.60444373e-01 1.08792350e-01 1.72956232e-02
      2.62471050e-01 2.22831089e-02 3.99457999e-02 5.11224084e-02
      4.54535671e-02 1.53882146e-01 2.62471050e-01 2.62471050e-01
      2.62471050e-01 2.62471050e-01 2.10667271e-02 1.92470010e-02
      6.11874573e-02 1.30915791e-01 1.19444735e-01 1.73335597e-01
      2.31433675e-01 2.62471050e-01 7.85765946e-02 3.83934043e-02
      6.10592961e-02 1.39621601e-01 1.39189035e-01 2.60401964e-01
      2.62471050e-01 2.15612963e-01 1.04074851e-01 1.07292444e-01
      5.81390075e-02 4.02467176e-02 1.31685942e-01 2.07457006e-01
      1.37936145e-01 1.52126104e-01 2.12090567e-01 1.60314798e-01
      1.02376401e-01 1.48794800e-01 1.57790020e-01 2.24460259e-01
      1.02177657e-01 1.07922725e-01 1.62860915e-01 1.75619707e-01
      1.02334499e-01 1.21299013e-01 7.85224214e-02 7.28321970e-02
      1.28730804e-01 2.14337200e-01 1.42292291e-01 2.42535457e-01
      2.42535457e-01 2.42535457e-01 1.32713109e-01 1.51330918e-01
      1.76694438e-01 2.42535457e-01 1.53730556e-01 1.82880744e-01
      1.99826717e-01 2.20953166e-01 1.42597288e-01 1.34136334e-01
      1.30836815e-01 1.04010314e-01 7.47840777e-02 6.27454892e-02
      9.91295427e-02 2.42535457e-01 2.42535457e-01 1.86231658e-01
      1.44096956e-01 1.54467253e-02 2.75018420e-02 1.16054177e-01
      1.09574355e-01 3.66080776e-02 2.07324207e-01 3.65503281e-01
      2.72384912e-01 3.71323258e-01 1.75966304e-02 4.07526307e-02
      1.41555592e-01 8.44392776e-02 5.51942512e-02 3.71323258e-01
      3.71323258e-01 3.71323258e-01 2.07101069e-02 2.40680873e-02
      1.74890719e-02 1.73982400e-02 2.95281261e-02 3.80175821e-02
      9.70620140e-02 1.12111807e-01 5.53366728e-02 3.32642570e-02
      1.82500724e-02 1.18712187e-02 4.07987349e-02 7.29728267e-02
      6.44640177e-02 1.17889896e-01 2.01705307e-01 1.30165964e-01
      2.19488546e-01 2.21883189e-02 8.80226400e-03 4.24288958e-02
      2.39211898e-02 2.72244606e-02 2.72768319e-01 2.76015610e-01
      2.76015610e-01 2.53706932e-01 1.62199721e-01 2.44685143e-01
      1.50074959e-01 1.10308520e-01 7.55083337e-02 2.76015610e-01
      2.76015610e-01 2.76015610e-01 2.89455224e-02 9.53993574e-03
      1.61891859e-02 3.66502628e-02 2.49873251e-02 2.12672967e-02
      7.48931617e-02 1.44394159e-01 9.49720889e-02 1.14768215e-01
      1.43450782e-01 1.97370797e-01 1.67208344e-01 5.76846972e-02
      4.70699854e-02 2.08772540e-01 2.76015610e-01 1.84532568e-01
      1.35157377e-01 1.13165304e-01 2.26403192e-01 2.26403192e-01
      1.63966373e-01 7.62513205e-02 2.06847042e-01 2.26403192e-01
      1.95145935e-01 9.56150889e-02 6.54547885e-02 1.62728786e-01
      2.20556319e-01 2.26403192e-01 2.26403192e-01 2.26403192e-01
      1.39425650e-01 1.49905562e-01 7.53080100e-02 1.28537312e-01
      2.22412303e-01 1.69276237e-01 9.78808627e-02 7.01563358e-02
      1.16431326e-01 1.93944454e-01 1.54953256e-01 7.32817873e-02
      6.41865730e-02 1.48210064e-01 2.26403192e-01 2.26403192e-01
      1.94873035e-01 1.90272436e-01 8.45031068e-02 9.89488810e-02
      1.18755817e-01 7.34431967e-02 4.95341159e-02 1.10073335e-01
      2.44127631e-01 2.38934085e-01 2.44127631e-01 1.51879191e-01
      1.52473882e-01 8.01238567e-02 4.40044366e-02 2.17841156e-02
      1.20853834e-01 2.44127631e-01 2.44127631e-01 2.44127631e-01
      1.47172034e-01 7.13824406e-02 9.97182429e-02 4.84645888e-02
      6.74715936e-02 2.44127631e-01 2.44127631e-01 2.40074873e-01
      2.44127631e-01 1.16080895e-01 8.66605118e-02 4.72906418e-02
      1.95745658e-02 3.37137394e-02 1.53670996e-01 2.44127631e-01
      2.44127631e-01 2.44127631e-01 1.65704623e-01 6.34113550e-02
      2.72427723e-02 1.58770140e-02 1.53928986e-02 1.02504060e-01
      3.46107990e-01 3.46107990e-01 3.46107990e-01 1.64899632e-01
      2.87335124e-02 1.88563596e-02 2.44035535e-02 2.29051281e-02
      4.98765707e-02 7.31183365e-02 1.10205770e-01 8.74913186e-02
      2.49112844e-02 1.43553996e-02 1.28942067e-02 1.17091397e-02
      3.62574756e-02 1.95595518e-01 3.46107990e-01 3.46107990e-01
      3.46107990e-01 2.28430539e-01 2.37527993e-02 3.44997048e-02
      1.95785686e-02 1.91109125e-02 3.76177281e-02 1.61159068e-01
      2.43295699e-01 1.56846210e-01 3.89425084e-02 2.91338917e-02
      1.59654647e-01 8.78249183e-02 7.23071992e-02 1.32338896e-01
      1.22582830e-01 1.85450420e-01 1.97085276e-01 1.76792413e-01
      2.36893728e-01 1.37665793e-01 8.52724090e-02 5.31546697e-02
      8.26085955e-02 9.24135372e-02 1.38383657e-01 1.92529902e-01
      2.36893728e-01 2.36893728e-01 2.21829385e-01 9.09019336e-02
      7.24619403e-02 9.03485566e-02 8.84384736e-02 2.05567747e-01
      2.24505484e-01 1.87048078e-01 2.36893728e-01 1.12626821e-01
      5.39550334e-02 5.94267510e-02 1.14306174e-01 1.84508458e-01
      2.36893728e-01 2.36893728e-01 2.36893728e-01 2.36893728e-01
      1.83552489e-01 1.58542275e-01 7.66432136e-02 1.49950117e-01
      1.46588266e-01 1.42627671e-01 2.32391670e-01 2.32391670e-01
      1.81752235e-01 1.16383351e-01 1.31523430e-01 7.51656815e-02
      8.39409977e-02 1.05184145e-01 1.01132013e-01 2.32391670e-01
      2.32391670e-01 1.17842242e-01 2.32391670e-01 1.13653943e-01
      9.37054902e-02 9.92065221e-02 1.02757923e-01 1.32949784e-01
      2.22779721e-01 2.32391670e-01 2.32391670e-01 1.13818921e-01
      7.69295096e-02 1.20600313e-01 1.05818465e-01 1.27282634e-01
      2.32391670e-01 2.32391670e-01 2.32391670e-01 2.15936318e-01
      3.85633707e-02 8.76685902e-02 9.85279828e-02 1.58248931e-01
      1.78553239e-01 1.40150920e-01 2.31831342e-01 1.91853642e-01
      7.14210272e-02 6.69108471e-03 4.98865955e-02 1.08765453e-01
      2.31831342e-01 2.31831342e-01 1.85869768e-01 2.21197233e-01
      2.02939585e-01 4.95225228e-02 6.52111471e-02 6.46219105e-02
      1.87887013e-01 2.22943828e-01 2.02473462e-01 2.31831342e-01
      2.31831342e-01 1.59289822e-01 1.65055633e-01 4.48127091e-02
      7.44908750e-02 1.65946499e-01 2.31831342e-01 2.31831342e-01
      2.31831342e-01 2.10813865e-01 1.25278890e-01 8.12790543e-02
      1.33942645e-02 1.82517767e-02 4.40109707e-02 9.33139697e-02
      7.11096078e-02 3.97434272e-02 3.96435484e-02 5.26545644e-02
      3.45330648e-02 2.73254842e-01 1.60292193e-01 2.58600116e-01
      2.73254842e-01 1.87852696e-01 1.05711475e-01 1.45664096e-01
      2.14578688e-01 2.73254842e-01 1.30118281e-02 2.09024586e-02
      2.74108592e-02 3.97478491e-02 7.75794387e-02 5.84461540e-02
      4.34059650e-02 3.67149897e-02 2.74670888e-02 2.66703397e-01
      2.88277417e-02 8.55130479e-02 2.73254842e-01 2.73254842e-01
      2.73254842e-01 2.73254842e-01 2.73254842e-01 2.73254842e-01
      1.59778744e-01 6.61102757e-02 1.07686587e-01 1.34995267e-01
      6.68218210e-02 4.59971614e-02 4.20950055e-02 1.06871240e-01
      2.42028028e-01 1.42194003e-01 7.39423633e-02 1.85725495e-01
      2.42028028e-01 2.42028028e-01 9.49653760e-02 4.76241373e-02
      5.12986965e-02 1.56836331e-01 2.35916927e-01 3.11713684e-02
      4.76344973e-02 1.45298034e-01 8.45909268e-02 1.21990010e-01
      2.42028028e-01 2.42028028e-01 2.42028028e-01 2.42028028e-01
      1.05291456e-01 1.70452550e-01 2.40712702e-01 1.66641355e-01
      7.56072477e-02 2.42028028e-01 2.42028028e-01 2.42028028e-01
      7.27745071e-02 5.87068051e-02 1.64362013e-01 2.38654166e-01
      2.38654166e-01 1.49639443e-01 9.21908394e-02 5.28193563e-02
      6.97872937e-02 2.32739169e-02 2.67430916e-02 5.39045148e-02
      2.38654166e-01 2.38654166e-01 2.38654166e-01 1.74739674e-01
      8.01144317e-02 4.64170724e-02 2.23266318e-01 7.58368149e-02
      1.57671556e-01 2.38654166e-01 1.95630506e-01 1.16836816e-01
      1.81990683e-01 1.69626817e-01 2.01578781e-01 1.67481676e-01
      7.41016269e-02 9.40630957e-02 2.38654166e-01 2.38654166e-01
      2.37718359e-01 1.62297681e-01 9.82825160e-02 2.33627498e-01
      6.76864386e-03 2.12976709e-02 4.39064167e-02 1.99394375e-01
      2.51756251e-01 2.51756251e-01 2.12500900e-01 5.52267954e-02
      9.82870255e-03 2.15527415e-02 7.03806058e-03 1.85869485e-02
      5.10807633e-02 1.39757290e-01 1.26156971e-01 6.01574518e-02
      2.14554220e-02 2.42741872e-02 2.20480472e-01 1.56474650e-01
      1.66519091e-01 2.51756251e-01 2.51756251e-01 2.51756251e-01
      1.88268468e-01 1.38434157e-01 2.51756251e-01 2.51756251e-01
      1.97262317e-01 1.19002879e-01 2.44275749e-01 2.51756251e-01
      9.30175409e-02 7.36111253e-02 1.03588201e-01 2.51756251e-01
      1.00844190e-01 2.71744244e-02 3.54210101e-02 5.44848405e-02
      5.27954064e-02 9.08792987e-02 7.13892058e-02 7.74437562e-02
      1.13911770e-01 3.05181798e-02 1.77334026e-02 2.42561493e-02
      9.38803777e-02 1.61605015e-01 2.81731367e-01 1.58386588e-01
      7.65557513e-02 5.08954711e-02 3.14613134e-01 2.62378275e-01
      1.87167600e-01 3.14613134e-01 3.14613134e-01 2.23466635e-01
      8.60560536e-02 1.21014416e-01 3.14613134e-01 3.46034840e-02
      4.40193675e-02 1.18295953e-01 2.20322698e-01 1.83545813e-01
      2.97658473e-01 1.61390841e-01 9.42547992e-02 4.74963747e-02
      1.42997086e-01 8.70906860e-02 9.76217315e-02 8.90184790e-02
      1.42965645e-01 1.26688808e-01 1.24233037e-01 1.42989278e-01
      1.78910986e-01 1.70551270e-01 5.11340350e-02 1.49501234e-01
      1.49307355e-01 2.34362856e-01 2.39687786e-01 2.39687786e-01
      2.39687786e-01 2.39687786e-01 1.14001140e-01 1.01322927e-01
      5.80252670e-02 8.22249427e-02 2.25000098e-01 7.85748586e-02
      9.77370888e-02 1.66076124e-01 1.00442655e-01 2.01827347e-01
      1.11590065e-01 9.08415988e-02 1.28146216e-01 2.23115936e-01
      2.21952334e-01 2.39687786e-01 2.39687786e-01 2.39687786e-01
      1.21511184e-01 4.82763574e-02 1.28751948e-01 1.22862637e-01
      1.33296967e-01 2.29562506e-01 2.29562506e-01 2.02012375e-01
      2.29562506e-01 6.99827448e-02 7.65224248e-02 8.45731497e-02
      1.39316544e-01 1.49131060e-01 2.29562506e-01 2.29562506e-01
      1.28673434e-01 1.13215804e-01 1.43092304e-01 8.34803954e-02
      1.07585199e-01 1.34123132e-01 1.05678469e-01 2.14995593e-01
      2.29562506e-01 2.29562506e-01 2.29562506e-01 7.84593970e-02
      8.24564472e-02 9.80002508e-02 1.37420803e-01 1.14896335e-01
      2.29562506e-01 2.29562506e-01 2.29562506e-01 2.29562506e-01
      3.60739715e-02 3.66412550e-02 3.64475735e-02 4.34519202e-02
      9.13556144e-02 1.50442630e-01 9.74556506e-02 7.38006383e-02
      6.00526109e-02 1.53625593e-01 5.04659340e-02 8.25123563e-02
      2.85786241e-01 3.15743893e-01 3.21008027e-01 3.21008027e-01
      3.21008027e-01 3.21008027e-01 3.27311903e-02 2.72846334e-02
      6.42570406e-02 4.51539829e-02 5.48830219e-02 1.35453105e-01
      1.27837613e-01 1.10873222e-01 7.69429877e-02 5.41015901e-02
      7.36348182e-02 1.49432927e-01 1.64232537e-01 1.95480242e-01
      2.15892121e-01 2.48937875e-01 2.08811924e-01 5.43083698e-02
      7.57516623e-02 1.94303263e-02 2.83093844e-02 8.19662511e-02
      5.16144000e-02 1.01557650e-01 2.71663725e-01 2.71663725e-01
      1.58279061e-01 1.64372683e-01 5.18464521e-02 5.89963421e-02
      1.18715957e-01 8.18227455e-02 1.61503315e-01 2.71663725e-01
      2.71663725e-01 2.16615319e-01 1.71357170e-02 2.11494155e-02
      6.28485829e-02 1.83357179e-01 1.78717881e-01 4.48490195e-02
      1.42646432e-01 1.35614753e-01 1.50682200e-02 1.01065218e-01
      1.28723606e-01 1.64812952e-01 2.71663725e-01 2.71663725e-01
      1.94417685e-01 2.71663725e-01 2.71663725e-01 1.58916801e-01
      1.94182083e-01 7.38052577e-02 4.11467105e-02 8.11386183e-02
      8.40274319e-02 1.17769323e-01 1.83401912e-01 2.01399595e-01
      2.17994466e-01 2.13212177e-01 1.35650307e-01 5.64202890e-02
      1.20634519e-01 1.35004759e-01 1.11131273e-01 1.17899522e-01
      1.06775589e-01 2.28265449e-01 1.19985476e-01 2.10031927e-01
      1.40526667e-01 2.28265449e-01 2.28265449e-01 1.86888248e-01
      1.43883809e-01 2.16087848e-01 2.28265449e-01 1.48250833e-01
      1.97425231e-01 1.90546691e-01 2.28265449e-01 2.28265449e-01
      1.22905843e-01 9.14361030e-02 1.39489204e-01 1.81012034e-01
      2.22251743e-01 1.88008741e-01 1.01094127e-01 1.47130325e-01
      1.68076396e-01 1.03286073e-01 1.34209603e-01 1.51477411e-01
      2.23719269e-01 2.23719269e-01 2.23719269e-01 1.26294598e-01
      2.15492085e-01 2.23719269e-01 6.39420301e-02 5.87135255e-02
      1.06064364e-01 2.23719269e-01 1.88225895e-01 2.22798675e-01
      1.38929307e-01 2.23719269e-01 2.23719269e-01 7.06703365e-02
      7.46795386e-02 1.39062449e-01 2.15850815e-01 1.59943327e-01
      2.16999024e-01 9.98556763e-02 9.61617902e-02 2.23719269e-01
      5.35877459e-02 3.49592753e-02 6.13993630e-02 1.97686329e-01
      2.80626774e-01 2.62026697e-01 1.49683774e-01 2.80626774e-01
      2.80626774e-01 1.66349813e-01 5.96733540e-02 7.03844726e-02
      2.80626774e-01 3.44642848e-02 6.31102324e-02 1.16377212e-01
      1.63702950e-01 1.44326538e-01 1.02898307e-01 5.53448461e-02
      2.04833113e-02 1.50393406e-02 2.21380427e-01 2.80626774e-01
      1.87726602e-01 1.29372045e-01 2.80626774e-01 7.75280744e-02
      3.31070647e-02 3.31148319e-02 1.85238048e-01 1.14345796e-01
      2.80626774e-01 2.43132502e-01 1.09738015e-01 9.14220735e-02
      3.60461771e-02 1.41945668e-02 7.98426103e-03 1.97013523e-02
      2.32505068e-01 1.62382945e-01 8.71754885e-02 6.68586865e-02
      1.88860431e-01 6.76873103e-02 1.15518004e-01 1.83434129e-01
      1.47491992e-01 2.58083552e-01 2.36656114e-01 1.10779203e-01
      7.57855251e-02 1.67067423e-01 1.43054619e-01 1.95380881e-01
      2.58083552e-01 2.58083552e-01 2.58083552e-01 1.29299805e-01
      6.77283481e-02 2.89364550e-02 6.63695484e-02 4.92545739e-02
      1.37951702e-01 1.40816018e-01 2.58083552e-01 2.58083552e-01
      1.65896818e-01 8.39558095e-02 4.78803292e-02 1.24265015e-01
      6.89356476e-02 1.07604809e-01 1.80659190e-01 2.58083552e-01
      1.44221872e-01 1.13096416e-01 8.21892843e-02 9.22727212e-02
      7.00674132e-02 1.40122473e-01 1.55338272e-01 2.57903725e-01
      2.57903725e-01 1.48181632e-01 8.45745280e-02 8.03892389e-02
      1.15758285e-01 1.05838850e-01 1.40186027e-01 1.68902338e-01
      2.57903725e-01 2.57903725e-01 2.57903725e-01 1.33178949e-01
      7.80405253e-02 6.06962182e-02 6.71296865e-02 6.96046427e-02
      6.15463629e-02 1.76085889e-01 2.57903725e-01 2.57903725e-01
      1.79874599e-01 2.04656556e-01 1.31635651e-01 8.45832080e-02
      1.07852511e-01 1.04378745e-01 2.57903725e-01 2.57903725e-01
      5.28567843e-02 4.40573916e-02 5.68569228e-02 5.53743765e-02
      6.78161681e-02 1.24166943e-01 1.37721330e-01 1.15937285e-01
      1.35027841e-01 4.04746421e-02 2.07138598e-01 1.66130632e-01
      2.65259713e-01 2.65259713e-01 2.65259713e-01 1.79946437e-01
      9.92617384e-02 3.51369083e-02 1.19620010e-01 6.78368658e-02
      7.86321983e-02 6.71506375e-02 5.50029092e-02 8.79363418e-02
      1.08152062e-01 1.10045902e-01 1.75361097e-01 9.73676294e-02
      2.65259713e-01 2.65259713e-01 2.65259713e-01 2.65259713e-01
      2.65259713e-01 2.15224251e-01 2.65259713e-01 1.26726404e-01
      1.20381303e-02 7.78524280e-02 7.10658506e-02 2.53597498e-01
      2.95264095e-01 3.94494794e-02 1.42968744e-02 1.87456924e-02
      4.83296392e-03 6.00829758e-02 1.73296973e-01 1.73414350e-01
      3.13986748e-01 3.13986748e-01 7.60425776e-02 2.64492705e-02
      8.58148485e-02 1.08377516e-01 1.57207549e-02 1.37945712e-01
      1.74630925e-01 2.82043844e-01 3.13986748e-01 7.57277459e-02
      3.36187482e-02 1.07835479e-01 1.08163971e-02 2.53893360e-02
      1.31971851e-01 2.35350370e-01 3.13986748e-01 3.13986748e-01
      1.27474979e-01 2.26248857e-02 1.00605264e-01 3.83195616e-02
      6.94082379e-02 1.75166816e-01 1.58269599e-01 2.93109864e-01
      2.93109864e-01 1.08989328e-01 5.84153160e-02 1.10440247e-01
      1.61315098e-01 5.42825535e-02 8.94214064e-02 2.46553555e-01
      2.93109864e-01 2.93109864e-01 1.33377776e-01 6.68660775e-02
      6.45580664e-02 8.49085301e-02 2.91194040e-02 7.09880218e-02
      1.21955022e-01 2.93109864e-01 2.93109864e-01 9.82902646e-02
      3.65021341e-02 4.45662625e-02 6.15990683e-02 2.22750530e-02
      4.93881740e-02 1.74370736e-01 2.93109864e-01 2.93109864e-01
      1.11224487e-01 6.34213984e-02 3.05214338e-02 4.61977273e-02
      2.16975749e-01 1.88349023e-01 3.30529988e-01 3.30529988e-01
      3.30529988e-01 1.64975867e-01 9.07993466e-02 1.19913697e-01
      2.09284276e-01 1.30568281e-01 1.93327233e-01 9.43698809e-02
      8.78935531e-02 1.52260900e-01 6.94783702e-02 5.09127080e-02
      5.50887808e-02 1.45410091e-01 9.81571302e-02 4.41170931e-02
      2.00005159e-01 3.30529988e-01 3.30529988e-01 1.45228460e-01
      9.32498723e-02 4.34223115e-02 1.29123405e-01 1.02798723e-01
      5.25934510e-02 5.19886017e-02 4.23074104e-02 1.06882527e-01
      6.10188395e-02 4.13108952e-02 4.42563370e-02 1.08854525e-01
      1.61492154e-01 2.68851966e-01 2.68851966e-01 2.35984832e-01
      2.02592209e-01 9.97164175e-02 5.14126793e-02 3.43615040e-02
      7.97339454e-02 2.15629026e-01 2.68851966e-01 2.68851966e-01
      1.35295808e-01 9.85366032e-02 6.07268065e-02 2.16555037e-02
      2.76577361e-02 8.22683424e-02 1.88690767e-01 1.66480511e-01
      2.14689851e-01 1.79943159e-01 2.51202166e-01 1.86781183e-01
      1.03137046e-01 9.36065763e-02 1.59068167e-01 1.68884575e-01
      1.80553481e-01 1.25463545e-01 1.27169371e-01 1.91469938e-01
      1.30680308e-01 9.33615267e-02 1.30555511e-01 1.48437947e-01
      2.73179322e-01 8.36230963e-02 1.48187391e-02 1.39662568e-02
      4.13691625e-02 4.44846153e-02 1.14187561e-01 1.85927540e-01
      2.73179322e-01 2.73179322e-01 1.19680621e-01 2.84679011e-02
      1.80635247e-02 6.49128035e-02 3.54806744e-02 1.03839524e-01
      2.03866869e-01 2.73179322e-01 2.73179322e-01 9.69023257e-02
      2.94726286e-02 1.06579028e-02 4.13666666e-02 8.72180536e-02
      2.07390264e-01 2.73179322e-01 2.73179322e-01 2.73179322e-01
      1.48114637e-01 3.21410224e-02 4.22685454e-03 2.34847888e-02
      6.75597787e-02 1.67964831e-01 2.73179322e-01 2.73179322e-01
      2.63618678e-01 1.61835402e-01 4.54001687e-02 1.67999920e-02
      3.53003778e-02 2.62840893e-02 6.39660060e-02 1.72466472e-01
      2.63618678e-01 2.63618678e-01 1.93843976e-01 1.57437906e-01
      4.94712703e-02 4.10440601e-02 1.14905424e-01 1.00540854e-01
      2.17045248e-01 2.63618678e-01 2.63618678e-01 1.86363459e-01
      3.72823551e-02 2.67387461e-03 1.79742593e-02 2.38051042e-02
      9.29185972e-02 2.63618678e-01 2.63618678e-01 2.63618678e-01
      1.79682434e-01 7.10539967e-02 1.20033966e-02 6.98429644e-02
      8.81034955e-02 7.36520067e-02 2.63618678e-01 2.63618678e-01
      9.84733701e-02 5.33075444e-02 7.13506714e-02 3.47979590e-02
      2.64072418e-02 4.58688289e-02 5.59184179e-02 6.87473863e-02
      1.16519094e-01 1.21379688e-01 2.06397176e-01 2.80708015e-01
      2.80708015e-01 2.80708015e-01 2.05356941e-01 2.35834479e-01
      2.80708015e-01 1.16750717e-01 1.01128913e-01 4.84875925e-02
      3.35192867e-02 1.61016658e-02 4.14729267e-02 3.66167836e-02
      3.40532660e-02 8.72926489e-02 1.26109794e-01 1.47242516e-01
      1.54680714e-01 1.23664215e-01 1.93431959e-01 2.80708015e-01
      2.80708015e-01 2.80708015e-01 2.57565230e-01 1.65624768e-01
      1.66865997e-02 8.71197656e-02 1.73784479e-01 1.88284814e-01
      2.70269036e-01 8.50486159e-02 6.77630827e-02 1.13498583e-01
      1.84916668e-02 7.13266432e-03 5.97933717e-02 2.00291961e-01
      2.70269036e-01 2.70269036e-01 1.55793905e-01 5.22430763e-02
      7.63925165e-02 9.89586115e-03 3.54776420e-02 5.72378039e-02
      6.35519251e-02 1.51877806e-01 2.70269036e-01 2.48905718e-01
      2.07142085e-01 1.25805929e-01 3.43407430e-02 7.23861158e-02
      6.95276931e-02 2.24242821e-01 2.70269036e-01 2.70269036e-01
      2.70269036e-01 2.70269036e-01 1.38930097e-01 6.72297776e-02
      4.72194469e-03 6.08383976e-02 1.62444279e-01 2.68123329e-01
      2.68123329e-01 1.32777631e-01 4.98973615e-02 2.21352261e-02
      6.82990160e-03 6.19098805e-02 1.57387972e-01 2.48777419e-01
      2.68123329e-01 2.68123329e-01 1.30896688e-01 1.11025788e-01
      4.16997969e-02 8.87397602e-02 4.61924002e-02 1.78245887e-01
      2.68123329e-01 2.68123329e-01 2.68123329e-01 1.77691638e-01
      1.11879401e-01 3.97849418e-02 4.45698351e-02 7.86031410e-02
      2.62411207e-01 2.68123329e-01 1.81294307e-01 1.83367431e-01
      7.98307955e-02 6.02598190e-02 4.83662747e-02 8.01535398e-02
      2.63024271e-01 1.66179761e-01 1.90953940e-01 2.63024271e-01
      2.63024271e-01 1.35070637e-01 1.26476988e-01 8.03366899e-02
      2.63024271e-01 2.32861087e-01 5.40761016e-02 2.48631965e-02
      3.81417572e-02 1.98259011e-01 2.47236993e-02 3.13913897e-02
      4.83258516e-02 2.23117039e-01 2.63024271e-01 2.20992938e-01
      2.28294894e-01 1.19800135e-01 2.63024271e-01 7.83999935e-02
      7.79296085e-02 1.28302976e-01 2.63024271e-01 2.05611706e-01
      4.59649153e-02 2.45076641e-02 3.51418853e-02 1.47305995e-01
      1.62176527e-02 3.95699367e-02 7.66041130e-02 1.90981269e-01
      2.56644458e-01 2.56644458e-01 1.32610098e-01 6.34455755e-02
      1.12163551e-01 8.20412040e-02 8.81778151e-02 1.08680308e-01
      2.56644458e-01 2.56644458e-01 2.43219733e-01 1.07827798e-01
      1.06216751e-01 1.57238677e-01 1.07180171e-01 7.92211220e-02
      1.38614252e-01 2.47931600e-01 2.56644458e-01 2.22996339e-01
      8.68491307e-02 1.78045798e-02 4.27901857e-02 6.90209121e-02
      9.37851891e-02 1.24895230e-01 2.56644458e-01 2.56644458e-01
      2.56644458e-01 1.25255644e-01 7.73490667e-02 1.63612515e-01
      1.05488911e-01 6.02417774e-02 5.42752333e-02 2.23693743e-01
      8.49830955e-02 2.87202094e-02 1.84500180e-02 9.77976993e-03
      9.72142629e-03 3.02777681e-02 8.42819661e-02 1.30956322e-01
      1.30118042e-01 1.16549760e-01 3.67460251e-02 1.30268140e-02
      3.72504746e-03 1.47745060e-02 2.76567787e-02 5.51427342e-02
      1.70417756e-01 1.50475830e-01 4.58869934e-01 2.95322761e-02
      1.14326850e-02 8.91437195e-03 8.72364640e-03 3.81639674e-02
      6.10420369e-02 9.43702757e-02 4.58869934e-01 4.58869934e-01
      2.02771015e-02 1.64979864e-02 6.82357186e-03 5.35371043e-02
      5.45678139e-02 5.75325340e-02 8.08376372e-02 4.58869934e-01
      8.35322067e-02 3.61205302e-02 1.36875147e-02 1.95310533e-03
      2.02767011e-02 2.57753059e-02 5.60133234e-02 1.93557516e-01
      9.95624810e-02 5.70375808e-02 3.43080647e-02 2.73883492e-02
      7.36738089e-03 3.96468379e-02 3.25848721e-02 5.71274757e-02
      1.82490259e-01 1.09063841e-01 4.54758227e-01 1.78581960e-02
      2.21768655e-02 9.36274137e-03 5.22959419e-02 3.24736089e-02
      4.86057959e-02 1.02276988e-01 4.54758227e-01 4.54758227e-01
      1.06408074e-02 1.57865155e-02 1.76926125e-02 2.46566460e-02
      4.24023606e-02 6.52008280e-02 1.64319322e-01 4.54758227e-01
      4.78368625e-02 1.55874547e-02 1.46445902e-02 6.69715321e-03
      3.06683592e-02 3.16048227e-02 4.53423262e-02 8.11228156e-02
      8.86802971e-02 6.20440654e-02 4.35030758e-02 3.55446488e-02
      6.85198531e-02 1.91078484e-01 2.03582212e-01 1.84752464e-01
      1.31878734e-01 1.04677051e-01 4.45140332e-01 4.86693345e-03
      1.11998012e-02 1.10183377e-02 1.81269273e-02 5.22751361e-02
      5.15964776e-02 8.04547295e-02 4.45140332e-01 4.45140332e-01
      2.38112044e-02 4.35423106e-02 3.61076817e-02 5.11474423e-02
      6.99889064e-02 5.81356585e-02 4.95491028e-02 4.45140332e-01
      4.50356454e-02 2.98188366e-02 2.46315580e-02 6.85056970e-02
      1.30025998e-01 2.43910223e-01 2.60409057e-01 1.78991660e-01
      5.31221554e-02 2.49214903e-01 1.11779645e-01 2.60409057e-01
      2.09755793e-01 1.85825452e-01 2.60409057e-01 2.60409057e-01
      2.60409057e-01 2.41261482e-01 2.60409057e-01 1.13995178e-02
      1.18143829e-02 7.61268148e-03 1.75551344e-02 2.99000852e-02
      6.14519529e-02 4.61864211e-02 2.39143327e-01 2.60409057e-01
      3.31428275e-02 1.28610566e-01 3.23138312e-02 1.56850498e-02
      6.29202053e-02 1.68912366e-01 8.96197483e-02 2.60409057e-01
      2.21725881e-01 2.78463721e-01 2.88305014e-01 2.71964371e-01
      1.41811669e-01 1.93318918e-01 2.25863844e-01 8.90500844e-02
      2.00282648e-01 7.16613010e-02 1.80819631e-01 2.88305014e-01
      1.40317664e-01 5.17921224e-02 2.72796676e-02 3.33647057e-02
      7.38887712e-02 5.85245639e-02 2.88305014e-01 6.40427694e-02
      2.15449095e-01 4.75350730e-02 1.76776834e-02 3.62580679e-02
      8.10079575e-02 3.82682569e-02 2.88305014e-01 2.88305014e-01
      3.15969884e-02 6.04866147e-02 1.80306397e-02 1.63385924e-02
      1.02919200e-02 2.80012395e-02 4.09170277e-02 2.88305014e-01
      1.81337148e-01 1.28407806e-01 1.32597730e-01 5.63305058e-02
      1.80827081e-02 2.80784108e-02 8.45864192e-02 2.55512387e-01
      1.85669184e-01 1.71535149e-01 5.41848317e-02 3.21985260e-02
      1.91414766e-02 8.72905925e-03 3.84625122e-02 6.48931116e-02
      1.41312569e-01 1.71485245e-01 4.11176205e-01 2.59254258e-02
      2.90625244e-02 1.67044327e-02 1.92289725e-02 3.67552638e-02
      8.47262442e-02 1.39712051e-01 4.11176205e-01 4.11176205e-01
      2.17404366e-02 1.30797001e-02 5.42815914e-03 1.16119590e-02
      5.19053526e-02 6.73516914e-02 1.19634688e-01 4.11176205e-01
      1.20764345e-01 5.64667881e-02 3.20347138e-02 4.83233482e-03
      2.00094208e-02 5.04847616e-02 4.85267714e-02 6.10102899e-02
      1.09795332e-01 8.15155879e-02 6.93107396e-02 3.99543755e-02
      3.66421826e-02 8.81301761e-02 5.05016819e-02 4.37971354e-02
      2.38361470e-02 5.67052290e-02 4.75341052e-01 1.78928617e-02
      1.38969673e-02 1.16004748e-02 1.26012266e-02 3.25172804e-02
      5.77241369e-02 8.59373733e-02 4.75341052e-01 4.75341052e-01
      1.92782637e-02 3.18784267e-02 4.64813225e-02 3.41347493e-02
      3.16779539e-02 4.27639782e-02 3.19123305e-02 4.75341052e-01</_>
    <_>
      2.15045720e-01 7.26609677e-02 7.00829625e-02 1.40688285e-01
      1.68144017e-01 1.56918451e-01 1.20975032e-01 1.26729682e-01
      1.68429807e-01 2.21123576e-01 1.10817790e-01 1.77068323e-01
      2.21123576e-01 2.21123576e-01 1.77131012e-01 2.20652983e-01
      1.80875167e-01 2.21123576e-01 7.16572404e-02 7.14402869e-02
      1.73893973e-01 1.52610525e-01 2.21123576e-01 2.14723736e-01
      1.08303063e-01 1.07691154e-01 5.80009073e-02 6.74716681e-02
      7.62723833e-02 1.95387661e-01 2.21123576e-01 2.21123576e-01
      2.21123576e-01 2.21123576e-01 1.55571729e-01 6.17567375e-02
      9.00930762e-02 1.17233962e-01 1.30277038e-01 2.18444988e-01
      1.78118631e-01 1.56868652e-01 1.57072812e-01 8.71121660e-02
      1.19811989e-01 1.05300590e-01 1.28577814e-01 9.89407226e-02
      2.25187257e-01 2.25187257e-01 2.25187257e-01 1.56527877e-01
      1.54352799e-01 1.25842094e-01 8.49074423e-02 7.48884380e-02
      8.02200809e-02 1.64820388e-01 1.49957523e-01 2.18676910e-01
      2.25187257e-01 1.25496015e-01 6.84641674e-02 2.25187257e-01
      8.98064002e-02 6.03975989e-02 2.25187257e-01 2.25187257e-01
      2.25187257e-01 2.25187257e-01 2.25187257e-01 2.25187257e-01
      1.12260215e-01 6.33788854e-02 8.84946063e-02 2.05253765e-01
      2.61570662e-01 2.61570662e-01 9.17610079e-02 1.11823469e-01
      1.59497663e-01 1.36295184e-01 3.03872395e-02 5.50793782e-02
      1.37795463e-01 2.52785534e-01 8.32807198e-02 2.76331231e-02
      4.10038233e-02 1.65886134e-01 2.61570662e-01 6.82089925e-02
      7.13961124e-02 1.68731213e-01 2.08540037e-01 2.23793417e-01
      1.61037266e-01 2.48903081e-01 2.61570662e-01 2.61570662e-01
      6.90111443e-02 6.57339245e-02 1.03698440e-01 1.07914291e-01
      9.18021798e-02 5.99928685e-02 2.61570662e-01 2.61570662e-01
      1.33257195e-01 5.16073108e-02 3.22110429e-02 1.74202114e-01
      2.25786686e-01 9.88336131e-02 5.34196422e-02 2.98420023e-02
      1.12894952e-01 1.51880354e-01 6.08376861e-02 4.19586934e-02
      2.50992566e-01 2.50992566e-01 1.95308000e-01 1.70697451e-01
      1.03005454e-01 1.36372432e-01 2.50992566e-01 1.34671003e-01
      7.43307993e-02 1.50870815e-01 1.86816111e-01 7.22214505e-02
      6.15061633e-02 1.46397173e-01 2.50992566e-01 1.88348994e-01
      1.53858006e-01 8.81574154e-02 2.50992566e-01 2.50992566e-01
      2.50992566e-01 2.50992566e-01 2.03309879e-01 1.39437884e-01
      1.71806067e-01 3.39998528e-02 5.06492220e-02 2.52089202e-01
      2.70242929e-01 2.11283848e-01 1.48597166e-01 1.36443019e-01
      1.52169093e-01 1.82066649e-01 3.13802138e-02 4.44911271e-02
      1.03416339e-01 1.99786767e-01 1.65401667e-01 8.97929221e-02
      7.24299550e-02 1.68975487e-01 6.44930601e-02 4.67233248e-02
      8.71956721e-02 2.27243334e-01 2.70927638e-01 2.70927638e-01
      2.70927638e-01 2.70927638e-01 8.91823545e-02 2.92006582e-02
      4.18971777e-02 9.37007964e-02 1.29385680e-01 2.17877835e-01
      2.70927638e-01 1.73607230e-01 1.28318146e-01 1.69298779e-02
      1.73396081e-01 3.91208343e-02 5.29866926e-02 1.42184660e-01
      2.62950033e-01 1.95037916e-01 1.25630662e-01 3.11643127e-02
      2.17113554e-01 2.59191930e-01 3.45667861e-02 8.15838575e-02
      2.16171637e-01 2.62950033e-01 2.16615319e-01 7.66773075e-02
      3.09081059e-02 1.86304688e-01 1.65923852e-02 4.31240276e-02
      1.26464143e-01 2.40147814e-01 2.62950033e-01 2.31254414e-01
      1.32697836e-01 4.53277789e-02 4.64824075e-03 8.65305886e-02
      1.10499993e-01 1.58386499e-01 2.62950033e-01 2.62950033e-01
      2.62950033e-01 1.09827302e-01 9.20511931e-02 3.81154642e-02
      1.52037457e-01 3.56517136e-02 5.66752329e-02 1.33707538e-01
      2.51213223e-01 1.19779006e-01 4.13907841e-02 4.54040021e-02
      1.17212802e-01 1.65990666e-01 1.51486903e-01 1.71199486e-01
      2.51213223e-01 2.51213223e-01 1.68497875e-01 4.79132459e-02
      8.77180547e-02 1.74836963e-01 2.20055878e-01 1.76995412e-01
      1.40172049e-01 1.21205322e-01 2.51213223e-01 1.33260518e-01
      5.12589514e-02 7.71442279e-02 7.96886757e-02 2.51213223e-01
      2.51213223e-01 2.51213223e-01 2.45142862e-01 2.43695900e-01
      1.33384973e-01 4.62916717e-02 8.84044915e-02 1.88746512e-01
      8.54237378e-02 9.44552794e-02 2.26792097e-01 1.88670963e-01
      2.26792097e-01 2.26792097e-01 2.09921643e-01 7.83321112e-02
      5.47258295e-02 6.68910742e-02 1.05229862e-01 1.42897114e-01
      1.41665891e-01 2.26792097e-01 2.26792097e-01 1.84715435e-01
      8.74449387e-02 5.83489984e-02 5.79903014e-02 1.09579645e-01
      1.99776411e-01 2.26792097e-01 2.26792097e-01 2.26792097e-01
      2.26792097e-01 1.46573544e-01 6.68623820e-02 9.41528603e-02
      1.51175037e-01 1.35166034e-01 2.26792097e-01 2.24858403e-01
      1.97564036e-01 1.34194851e-01 1.63331583e-01 1.07996628e-01
      1.25127137e-01 8.18835646e-02 5.23790531e-02 7.02034757e-02
      1.21364810e-01 1.80587441e-01 2.19710246e-01 1.49670631e-01
      1.12311706e-01 2.51758307e-01 9.30984020e-02 7.56470785e-02
      1.50120199e-01 1.38285920e-01 1.95515171e-01 2.51758307e-01
      2.51758307e-01 2.51758307e-01 1.29760757e-01 1.09186001e-01
      5.21149561e-02 1.06674902e-01 1.72993094e-01 1.15237541e-01
      6.99112639e-02 1.88980371e-01 1.04851715e-01 2.02036291e-01
      1.28573745e-01 1.35041341e-01 1.94582462e-01 2.51758307e-01
      1.60361156e-01 1.64881453e-01 2.51758307e-01 2.41342857e-01
      2.53044337e-01 4.11885791e-02 4.56841104e-02 9.04841721e-02
      8.46245214e-02 1.16053805e-01 2.53044337e-01 2.35676810e-01
      2.53044337e-01 2.53044337e-01 7.96452686e-02 7.59588927e-02
      6.34666532e-02 6.85594380e-02 1.27987027e-01 2.03415155e-01
      2.53044337e-01 2.53044337e-01 1.26581118e-01 5.46550006e-02
      9.90001112e-02 1.66771412e-01 2.18943462e-01 1.01152919e-01
      1.71629056e-01 1.96633935e-01 1.68434337e-01 2.10141405e-01
      3.53363827e-02 5.33380136e-02 9.44826975e-02 1.96162179e-01
      1.10822372e-01 1.98948860e-01 2.17768893e-01 2.00773522e-01
      2.30799481e-01 1.13323733e-01 8.22148174e-02 7.63255283e-02
      7.73427784e-02 7.15114921e-02 1.15055390e-01 2.05938742e-01
      2.30799481e-01 2.06655443e-01 1.29585832e-01 7.50157163e-02
      1.59742698e-01 2.02055797e-01 2.30799481e-01 2.30799481e-01
      2.08973825e-01 1.63625047e-01 1.63239449e-01 3.88891548e-02
      5.36395386e-02 7.96655267e-02 1.95351467e-01 1.34859115e-01
      1.74825594e-01 2.08440781e-01 2.08317608e-01 1.16688818e-01
      7.61794448e-02 5.11758253e-02 1.80972829e-01 2.30799481e-01
      2.30799481e-01 2.30799481e-01 2.22045153e-01 1.24480695e-01
      8.64990130e-02 3.86277139e-02 6.24470636e-02 1.08059153e-01
      2.05219507e-01 2.58711070e-01 2.58711070e-01 2.58711070e-01
      8.50857273e-02 4.06632684e-02 1.67387817e-02 4.91209030e-02
      8.61603543e-02 1.37247920e-01 2.21437722e-01 1.76265582e-01
      1.26061291e-01 3.36106867e-02 5.20044565e-02 4.26456630e-02
      2.95291692e-02 2.13481054e-01 2.58711070e-01 2.58711070e-01
      2.58711070e-01 2.58711070e-01 6.76304698e-02 3.27571891e-02
      2.04087459e-02 3.24253701e-02 1.58767805e-01 2.58711070e-01
      2.58711070e-01 2.58711070e-01 2.00647652e-01 5.39618321e-02
      3.45673710e-02 3.23201008e-02 1.13492891e-01 2.48375803e-01
      2.41431400e-01 1.84000567e-01 1.01851128e-01 4.97302189e-02
      1.55729093e-02 8.25727582e-02 8.17538872e-02 1.56510174e-01
      2.59975046e-01 2.59975046e-01 2.27182508e-01 1.70297340e-01
      9.43873301e-02 1.85931120e-02 3.81700061e-02 4.07367945e-02
      9.10576805e-02 1.84023991e-01 2.59975046e-01 2.59975046e-01
      2.59975046e-01 1.47419199e-01 2.95332745e-02 4.97554131e-02
      3.97751853e-02 1.21110097e-01 2.37017006e-01 2.59975046e-01
      2.59975046e-01 2.51648515e-01 8.66172612e-02 2.78054047e-02
      1.64827615e-01 1.36346713e-01 1.60906523e-01 1.47843063e-01
      2.32361391e-01 1.19201176e-01 1.88831419e-01 1.01591818e-01
      6.04118854e-02 2.32361391e-01 1.81297928e-01 1.86281219e-01
      1.42629072e-01 9.09338966e-02 9.68606621e-02 1.33265406e-01
      7.86325037e-02 1.36364505e-01 1.05260648e-01 3.96437421e-02
      1.11706637e-01 1.18250489e-01 2.32361391e-01 2.32361391e-01
      2.32361391e-01 1.53485790e-01 1.88050836e-01 1.87968194e-01
      7.23319575e-02 1.80842534e-01 1.12269804e-01 1.58632055e-01
      2.26334259e-01 2.32361391e-01 2.32361391e-01 2.32361391e-01
      4.25729305e-02 1.51235238e-01 1.23541564e-01 2.15427503e-01
      1.86285183e-01 2.17940137e-01 1.65250078e-01 8.25111568e-02
      3.60198505e-02 1.34384245e-01 8.73148218e-02 1.19199321e-01
      1.97505563e-01 1.64231554e-01 2.00242788e-01 1.85452372e-01
      1.55465752e-01 1.51674375e-01 9.94079858e-02 2.17940137e-01
      1.95370629e-01 1.93905473e-01 1.37967110e-01 2.17940137e-01
      1.45638257e-01 1.00363784e-01 8.30645189e-02 2.17940137e-01
      1.21421829e-01 1.37821481e-01 1.90277025e-01 2.17940137e-01
      2.17940137e-01 2.03639820e-01 1.79649606e-01 2.05599263e-01
      1.37585059e-01 8.47466215e-02 3.92480567e-02 8.07712004e-02
      1.75104529e-01 1.38121009e-01 8.00624564e-02 1.63189054e-01
      1.55534238e-01 1.27455622e-01 1.65216267e-01 7.47106448e-02
      2.07924739e-01 2.29355335e-01 1.43821076e-01 6.83533549e-02
      2.29355335e-01 1.12505138e-01 2.29355335e-01 1.23613030e-01
      7.39247799e-02 1.80513620e-01 2.29355335e-01 2.29355335e-01
      6.79722577e-02 1.28283486e-01 2.08444878e-01 2.29355335e-01
      2.29355335e-01 1.39176115e-01 2.29355335e-01 2.29355335e-01
      2.20211148e-01 6.60193786e-02 1.82168007e-01 1.71736673e-01
      8.32980797e-02 1.66657165e-01 1.48101911e-01 2.56875247e-01
      2.56875247e-01 1.38557181e-01 8.76927301e-02 1.74430937e-01
      6.03573285e-02 6.52301237e-02 6.29022792e-02 1.14441633e-01
      2.56875247e-01 2.56875247e-01 1.24014206e-01 6.88169822e-02
      6.92901686e-02 8.14950317e-02 1.29516661e-01 2.32674226e-01
      1.77965164e-01 2.56875247e-01 2.56875247e-01 2.46438727e-01
      9.64340046e-02 1.31742492e-01 9.99412760e-02 2.06021629e-02
      6.33522868e-02 1.52363300e-01 2.56875247e-01 2.56875247e-01
      2.56875247e-01 5.55802695e-02 3.39749455e-02 3.52447331e-02
      3.06754019e-02 1.92638319e-02 8.30641240e-02 1.68718591e-01
      3.51611644e-01 1.21527642e-01 5.52828349e-02 5.54280467e-02
      5.05255274e-02 1.82587225e-02 2.97696609e-02 7.87265673e-02
      3.44148397e-01 3.51611644e-01 2.17301175e-01 9.04249921e-02
      9.20730531e-02 2.29218323e-02 2.04047142e-03 1.39694344e-02
      6.76682740e-02 2.92255610e-01 3.51611644e-01 1.18636630e-01
      1.85046960e-02 7.98980799e-03 5.54212229e-03 0. 1.06111290e-02
      5.44701889e-02 3.51611644e-01 3.51611644e-01 1.38723284e-01
      2.52286643e-02 1.69341378e-02 5.64433809e-04 1.89287681e-02
      2.83454824e-02 2.91704498e-02 2.45572999e-01 2.61311471e-01
      1.50290281e-01 1.12525776e-01 1.12812281e-01 1.51476078e-02
      5.88234812e-02 5.77434003e-02 5.84024750e-02 2.02423006e-01
      2.61311471e-01 2.61311471e-01 2.61311471e-01 1.38926238e-01
      2.96118390e-02 5.00595011e-02 5.97800910e-02 6.09119684e-02
      2.61311471e-01 2.61311471e-01 1.28851816e-01 4.37010229e-02
      9.91722569e-02 2.80202478e-02 1.55256867e-01 1.33091912e-01
      1.44174695e-01 2.61311471e-01 2.61311471e-01 2.61311471e-01
      2.31455684e-01 1.88446879e-01 1.01698831e-01 5.00488915e-02
      9.46843624e-02 1.00195214e-01 1.45030290e-01 2.48274013e-01
      2.48274013e-01 2.48274013e-01 1.33482069e-01 1.81338340e-02
      3.96966003e-02 5.90951033e-02 8.51312578e-02 1.70999080e-01
      2.13905916e-01 1.94053918e-01 1.07870840e-01 3.03888507e-02
      3.62352617e-02 1.44055560e-01 1.64078608e-01 2.21548706e-01
      2.48274013e-01 2.48274013e-01 2.48274013e-01 2.48274013e-01
      1.82517663e-01 1.44687697e-01 4.22338732e-02 9.25936326e-02
      1.07317336e-01 2.48274013e-01 2.37036884e-01 2.27412820e-01
      1.30390212e-01 6.03156388e-02 5.87082580e-02 1.36744529e-01
      5.15762232e-02 6.31063879e-02 1.01009652e-01 1.25689030e-01
      1.63526297e-01 8.74582231e-02 7.46020004e-02 2.18198478e-01
      2.41903618e-01 1.24834284e-01 1.59665331e-01 9.20286626e-02
      1.87765121e-01 2.10363895e-01 2.01696023e-01 2.41903618e-01
      2.41903618e-01 7.55839497e-02 5.16554564e-02 4.11821306e-02
      1.42668366e-01 1.49771750e-01 1.33232161e-01 9.26962942e-02
      3.66608612e-02 9.36171934e-02 2.41903618e-01 1.89441606e-01
      1.13058791e-01 1.64816365e-01 2.41903618e-01 2.35902816e-01
      2.41903618e-01 2.41903618e-01 2.41903618e-01 8.66640657e-02
      1.40727922e-01 1.22226454e-01 1.17482767e-01 1.14977777e-01
      1.43815413e-01 1.45546347e-01 1.15925387e-01 1.37993246e-01
      1.51512578e-01 9.49004292e-02 1.38515592e-01 1.24506570e-01
      2.34797552e-01 2.34797552e-01 1.67704076e-01 1.10259138e-01
      1.91062823e-01 1.06065385e-01 1.47083983e-01 1.87703267e-01
      1.15657613e-01 2.03308254e-01 1.26991749e-01 1.86022267e-01
      1.72604650e-01 2.34797552e-01 1.79686949e-01 1.17028564e-01
      1.85470298e-01 1.39063388e-01 2.34797552e-01 2.34797552e-01
      1.97119027e-01 1.94641843e-01 2.34797552e-01 2.07577690e-01
      1.19522743e-01 1.37762725e-01 1.77384064e-01 2.32519537e-01
      1.60072297e-01 6.54731020e-02 8.12602937e-02 1.96732581e-01
      1.55265555e-01 1.51321620e-01 1.72065705e-01 2.32519537e-01
      2.32519537e-01 1.71108112e-01 1.06612310e-01 1.44677803e-01
      1.19322009e-01 1.71447605e-01 9.12983194e-02 1.55718654e-01
      1.12417892e-01 2.32519537e-01 2.00818464e-01 9.73020718e-02
      1.09876275e-01 2.32519537e-01 1.03106529e-01 8.15687999e-02
      1.20035477e-01 1.81204244e-01 2.32519537e-01 2.32519537e-01
      2.32519537e-01 1.40020192e-01 9.52639803e-02 7.52222836e-02
      1.13429599e-01 1.52566046e-01 2.64534593e-01 2.64534593e-01
      2.62636453e-01 1.12931602e-01 1.28782332e-01 6.11736849e-02
      1.45721016e-02 2.38414090e-02 7.32433796e-02 2.28477105e-01
      2.64534593e-01 2.64534593e-01 4.71069738e-02 3.04302815e-02
      1.21972552e-02 6.60589561e-02 7.76927099e-02 1.27187580e-01
      2.64534593e-01 2.64534593e-01 2.64534593e-01 2.64534593e-01
      1.13271303e-01 3.61745358e-02 3.93211171e-02 5.42769097e-02
      1.18611775e-01 2.64534593e-01 2.64534593e-01 1.72361255e-01
      4.61151265e-02 2.25304384e-02 2.12413259e-02 1.57113024e-03
      2.70402990e-03 2.04992872e-02 2.07868859e-01 3.84169936e-01
      1.15830764e-01 1.75871048e-02 4.22598841e-03 1.28153560e-03 0.
      4.32843715e-03 3.20110433e-02 3.84169936e-01 3.84169936e-01
      1.33382320e-01 2.18382012e-02 5.82251977e-03 1.76372982e-04
      6.42591994e-03 1.44175505e-02 4.24101353e-02 1.63800344e-01
      3.84169936e-01 1.41635641e-01 1.54747348e-02 5.99875255e-03
      6.35952828e-03 6.14292398e-02 4.24063616e-02 6.79804161e-02
      2.55885661e-01 3.84169936e-01 2.35764086e-01 2.78389081e-02
      8.14202055e-03 1.21456729e-02 4.44580503e-02 6.61219582e-02
      7.30575770e-02 2.24692851e-01 2.38664865e-01 8.93252492e-02
      2.75413934e-02 5.12735657e-02 2.56937854e-02 1.56030595e-01
      1.46229431e-01 2.13880643e-01 2.38664865e-01 2.38664865e-01
      2.11910889e-01 1.04032613e-01 1.60845801e-01 1.62109181e-01
      1.00580178e-01 1.02196507e-01 9.14461017e-02 2.04671919e-01
      2.38664865e-01 1.46861717e-01 2.90523488e-02 2.19208002e-02
      4.29341942e-02 2.37716973e-01 2.01651633e-01 2.38664865e-01
      2.38664865e-01 2.38664865e-01 2.38664865e-01 7.03906938e-02
      1.17202006e-01 2.38664865e-01 1.26631409e-01 8.75814781e-02
      2.06177831e-01 2.40038946e-01 2.40038946e-01 2.40038946e-01
      1.38142839e-01 1.71518683e-01 2.04399511e-01 2.95928121e-02
      3.43435518e-02 6.38378635e-02 1.86903194e-01 2.40038946e-01
      1.79807588e-01 8.38183686e-02 6.17871433e-02 4.87042628e-02
      1.86347321e-01 9.98629630e-02 2.30439797e-01 2.40038946e-01
      2.40038946e-01 2.40038946e-01 9.85816047e-02 1.40455678e-01
      2.40038946e-01 5.12929522e-02 3.95411551e-02 1.24112725e-01
      2.36298501e-01 2.40038946e-01 1.52555302e-01 5.79811260e-02
      5.46936579e-02 6.01538382e-02 2.08879840e-02 4.27634269e-02
      5.14616519e-02 1.32782713e-01 1.71584889e-01 1.50400043e-01
      1.00658067e-01 3.84103432e-02 2.67975125e-02 2.48484477e-01
      1.62657514e-01 1.22999564e-01 1.46026492e-01 2.48484477e-01
      2.48484477e-01 2.08871797e-01 2.48484477e-01 1.64706305e-01
      1.36740595e-01 1.04727089e-01 1.52071372e-01 1.33351713e-01
      1.98036760e-01 1.53491691e-01 6.28969073e-02 7.27192312e-02
      4.19533551e-02 2.48484477e-01 2.48484477e-01 2.48484477e-01
      1.13956764e-01 1.86716676e-01 2.44269386e-01 8.47855508e-02
      2.43641540e-01 1.62124813e-01 7.41291642e-02 1.69625074e-01
      1.82215333e-01 1.95656374e-01 1.54606506e-01 4.73398715e-02
      1.50916860e-01 1.29764840e-01 1.85296103e-01 1.36077255e-01
      1.12088583e-01 2.01747715e-01 2.02103794e-01 2.28879049e-01
      1.95347965e-01 1.27947524e-01 1.35767743e-01 2.28879049e-01
      7.65569210e-02 1.75565138e-01 1.68917015e-01 2.27913544e-01
      1.37690544e-01 8.60752240e-02 1.75423905e-01 1.45322606e-01
      1.27312183e-01 1.37538269e-01 1.82055682e-01 2.28879049e-01
      2.28879049e-01 2.28879049e-01 1.66130513e-01 1.73496693e-01
      8.47652331e-02 1.25576377e-01 1.00651629e-01 4.98228520e-02
      1.24807894e-01 1.57860860e-01 2.52392441e-01 2.33488798e-01
      1.11049749e-01 8.68598297e-02 2.51962990e-01 5.46845719e-02
      4.96649146e-02 1.06679089e-01 1.58022881e-01 2.52392441e-01
      2.52392441e-01 2.03469068e-01 7.14056045e-02 1.05852403e-01
      1.06434971e-01 1.19278483e-01 1.75998315e-01 2.52392441e-01
      2.52392441e-01 1.87668577e-01 1.40495390e-01 3.69984843e-02
      8.96565840e-02 8.75195861e-02 8.56922865e-02 1.77457109e-01
      2.52138525e-01 2.52392441e-01 2.52392441e-01 1.41964912e-01
      4.29976359e-02 8.99751484e-02 3.50576378e-02 4.51335944e-02
      1.25930861e-01 2.75420219e-01 2.75420219e-01 2.75420219e-01
      1.55659109e-01 3.85610126e-02 4.55923788e-02 2.84372568e-02
      4.24097218e-02 1.28404766e-01 2.75420219e-01 2.75420219e-01
      1.08850896e-01 2.47087479e-02 2.21494641e-02 2.14219429e-02
      5.42305857e-02 5.99268712e-02 1.96511239e-01 2.75420219e-01
      2.75420219e-01 2.75420219e-01 1.20398045e-01 6.42770007e-02
      1.16475053e-01 2.96937879e-02 4.26413119e-02 1.13450557e-01
      2.52722025e-01 2.75420219e-01 2.55940378e-01 4.61052321e-02
      5.93540110e-02 8.47418532e-02 7.00346846e-03 1.28402011e-02
      3.82032320e-02 1.48469061e-01 3.43051285e-01 1.13815293e-01
      5.79064433e-03 6.89808186e-03 5.49224811e-03 9.13752168e-02
      6.54002428e-02 7.72780627e-02 2.33235464e-01 3.43051285e-01
      2.38153487e-01 3.52088064e-02 2.73279008e-02 3.41782980e-02
      5.28882816e-03 1.02694137e-02 3.25625129e-02 2.60793984e-01
      3.43051285e-01 1.40801474e-01 9.00941622e-03 1.14120143e-02
      6.74744090e-03 5.95875606e-02 1.01987392e-01 6.98964447e-02
      3.43051285e-01 3.43051285e-01 3.43051285e-01 7.16678947e-02
      6.11545183e-02 6.17542528e-02 1.19325772e-01 1.33397624e-01
      1.20700717e-01 1.92539871e-01 2.58400381e-01 2.14393556e-01
      6.36060610e-02 4.47599143e-02 5.69350049e-02 1.42161638e-01
      1.87098369e-01 2.09992692e-01 2.58400381e-01 2.58400381e-01
      2.58400381e-01 7.41088167e-02 5.53471036e-02 1.45430982e-01
      6.48430586e-02 1.21437438e-01 9.08200368e-02 2.44373441e-01
      2.58400381e-01 2.58400381e-01 1.04793146e-01 6.65301755e-02
      6.08657636e-02 3.22347507e-02 5.91915548e-02 1.10551380e-01
      2.58400381e-01 2.58400381e-01 2.58400381e-01 6.90683573e-02
      2.45390199e-02 1.91242266e-02 1.51766524e-01 1.27444163e-01
      2.40233108e-01 2.48659045e-01 2.48659045e-01 2.48659045e-01
      9.53080803e-02 6.33215830e-02 2.09714144e-01 1.11077152e-01
      8.15042332e-02 1.73468068e-01 2.08189815e-01 2.37117082e-01
      1.41382515e-01 5.60905784e-02 1.02356546e-01 9.69615951e-02
      5.87846525e-02 4.66862656e-02 1.42770976e-01 2.48659045e-01
      2.48659045e-01 2.48659045e-01 8.80001113e-02 2.32138541e-02
      2.28014961e-02 1.90764651e-01 1.27871200e-01 1.13565199e-01
      1.67716041e-01 2.48659045e-01 2.38157555e-01 8.30580667e-02
      1.18049271e-01 1.13310240e-01 2.34132051e-01 1.16602451e-01
      2.04013556e-01 9.21651199e-02 1.18324094e-01 1.60111561e-01
      9.82653052e-02 1.29214093e-01 1.30799845e-01 2.34132051e-01
      2.34132051e-01 2.34132051e-01 7.75544122e-02 7.14377612e-02
      1.53435200e-01 1.49083599e-01 1.58960983e-01 1.47405192e-01
      2.16991737e-01 1.11823007e-01 1.04929492e-01 8.60452801e-02
      1.86512321e-01 2.33410299e-01 1.67180270e-01 1.72662124e-01
      1.60066530e-01 1.92529097e-01 1.13437906e-01 1.20467916e-01
      9.82732400e-02 1.45926595e-01 2.34132051e-01 2.34132051e-01
      2.34132051e-01 1.31105706e-01 1.23737864e-01 1.00822031e-01
      1.14234090e-01 1.92116663e-01 1.17158443e-01 8.40857700e-02
      9.71280783e-02 5.77904619e-02 1.03046216e-01 1.72973931e-01
      1.43251464e-01 1.08346753e-01 2.22067311e-01 2.09725514e-01
      1.15973078e-01 1.80139363e-01 4.64737564e-02 1.66498944e-01
      1.89599186e-01 9.92283076e-02 2.24042132e-01 2.27941498e-01
      1.94253340e-01 2.15225562e-01 1.89098656e-01 7.19836354e-02
      1.59282342e-01 2.27941498e-01 1.29264399e-01 1.72638267e-01
      2.27941498e-01 2.11284414e-01 1.83978707e-01 2.27941498e-01
      1.25272632e-01 2.27941498e-01 1.94846764e-01 1.00077428e-01
      7.53683522e-02 1.36305213e-01 1.95916519e-01 1.00915372e-01
      1.12073034e-01 3.38505507e-02 1.44197151e-01 2.28403598e-01
      7.39858896e-02 9.83909518e-02 1.93262681e-01 2.28403598e-01
      1.99168310e-01 6.17965162e-02 7.74259567e-02 1.62152648e-01
      2.28403598e-01 1.20898239e-01 1.02374472e-01 1.87327847e-01
      1.71937540e-01 2.06924826e-01 1.54596031e-01 7.85259157e-02
      2.28403598e-01 2.28403598e-01 1.19174458e-01 2.00294420e-01
      2.07252085e-01 2.28403598e-01 2.28403598e-01 9.68780965e-02
      1.65801868e-01 2.28403598e-01 1.57508701e-01 7.86283463e-02
      1.08951055e-01 2.38962680e-01 2.38962680e-01 2.38962680e-01
      9.53470096e-02 1.03407905e-01 1.83006734e-01 5.85436150e-02
      5.65720238e-02 6.92466050e-02 2.01559052e-01 2.38962680e-01
      1.68696970e-01 8.18724930e-02 5.25375046e-02 1.17567614e-01
      2.38962680e-01 1.24375306e-01 2.18729928e-01 2.38962680e-01
      2.38962680e-01 2.38962680e-01 1.10315830e-01 1.87786162e-01
      2.22880706e-01 1.24800242e-01 8.53056163e-02 1.10223785e-01
      2.19619796e-01 2.38962680e-01 1.08333513e-01 8.46250132e-02
      7.54802451e-02 1.24509871e-01 6.63811574e-03 1.43046314e-02
      3.55712995e-02 1.97546601e-01 2.90441692e-01 1.70163602e-01
      4.90834303e-02 9.03650653e-03 9.99654830e-03 5.09018637e-02
      7.99848959e-02 7.17045218e-02 2.90441692e-01 2.90441692e-01
      2.90441692e-01 1.50342658e-01 8.47560912e-02 3.56891491e-02
      1.92268565e-02 2.12049242e-02 3.79942060e-02 9.74286571e-02
      2.90441692e-01 1.98803231e-01 1.81303158e-01 4.81676571e-02
      1.71362590e-02 8.70157853e-02 6.22008257e-02 7.43136555e-02
      1.49677709e-01 2.90441692e-01 2.90441692e-01 2.90441692e-01
      2.76994169e-01 4.60024178e-02 5.72885983e-02 8.25593323e-02
      7.07047656e-02 2.25155145e-01 2.70304739e-01 2.70304739e-01
      1.40191078e-01 7.63511062e-02 3.99210900e-02 3.09643019e-02
      3.24029438e-02 7.94302523e-02 2.70304739e-01 2.70304739e-01
      1.74643010e-01 4.93496396e-02 4.09128256e-02 1.79827232e-02
      8.38049948e-02 7.09549561e-02 9.79213491e-02 2.70304739e-01
      2.70304739e-01 2.70304739e-01 2.49937624e-01 2.01460704e-01
      5.83963357e-02 7.35698044e-02 8.43657777e-02 1.09146886e-01
      2.70304739e-01 2.70304739e-01 1.90663040e-01 8.21183175e-02
      8.25180039e-02 3.37270908e-02 7.25558028e-02 5.91921061e-02
      1.15399584e-01 2.59946108e-01 2.59946108e-01 1.65375799e-01
      4.85830978e-02 6.89827129e-02 5.79386689e-02 1.83660626e-01
      1.25178963e-01 9.32780132e-02 1.59172416e-01 2.59946108e-01
      1.93620205e-01 8.57277960e-02 5.62580302e-02 1.46201089e-01
      1.29411682e-01 1.14937879e-01 1.07323408e-01 2.59946108e-01
      2.59946108e-01 1.65356085e-01 4.31511663e-02 1.05196759e-01
      1.21721081e-01 2.59946108e-01 1.31761208e-01 9.34764668e-02
      2.59946108e-01 2.59946108e-01 2.22287610e-01 5.21868467e-02
      4.16108444e-02 2.59946108e-01 1.47723317e-01 8.24788362e-02
      5.51187210e-02 1.05148725e-01 2.45101497e-01 1.45494342e-01
      9.22202542e-02 7.75957778e-02 1.08459525e-01 1.18111707e-01
      1.07535355e-01 9.19975638e-02 1.61382020e-01 2.45101497e-01
      2.30578527e-01 2.26602405e-01 1.58038437e-01 6.45334795e-02
      2.38306940e-01 8.05063471e-02 1.00917257e-01 1.91759884e-01
      2.45101497e-01 2.07626671e-01 1.11005612e-01 6.59788698e-02
      1.67573690e-01 1.20660394e-01 1.62391603e-01 1.87886029e-01
      1.65835753e-01 2.45101497e-01 2.45101497e-01 2.45101497e-01
      2.08737850e-01 8.86017755e-02 1.31994620e-01 7.27289319e-02
      2.16826349e-01 2.31496915e-01 2.31496915e-01 1.74237877e-01
      1.19119301e-01 6.02025688e-02 8.07347372e-02 1.87763676e-01
      6.09916337e-02 1.68349519e-01 2.31496915e-01 2.31496915e-01
      2.31496915e-01 1.96736544e-01 1.01142652e-01 1.54158220e-01
      2.31496915e-01 1.42759517e-01 1.49992615e-01 2.17853680e-01
      2.31496915e-01 1.65630624e-01 1.21727720e-01 1.06035553e-01
      1.19890548e-01 1.92782626e-01 1.18782908e-01 9.76478383e-02
      1.63173839e-01 2.31496915e-01 1.57365516e-01 9.75102484e-02
      7.56126046e-02 1.37460425e-01 1.67958766e-01 8.62553120e-02
      1.34235412e-01 2.12163642e-01 2.21326068e-01 2.21326068e-01
      1.37520850e-01 8.40011090e-02 2.21326068e-01 1.43928856e-01
      9.28970873e-02 2.21326068e-01 2.21326068e-01 2.21326068e-01
      2.21326068e-01 1.15976408e-01 1.02062702e-01 2.21326068e-01
      1.77821249e-01 1.15280956e-01 1.14053667e-01 1.53157949e-01
      2.21326068e-01 1.41170889e-01 1.26413152e-01 1.32539839e-01
      1.67871252e-01 1.19234689e-01 1.03667147e-01 1.75807312e-01
      2.21326068e-01 2.21326068e-01 1.19234145e-01 8.80645663e-02
      1.36695907e-01 1.46710947e-01 1.50866032e-01 1.23698309e-01
      2.74850696e-01 2.74850696e-01 2.74850696e-01 1.95188746e-01
      9.61291268e-02 1.09971911e-01 1.64044499e-01 8.98935720e-02
      8.98880661e-02 1.68027624e-01 2.23903432e-01 2.74850696e-01
      9.07376483e-02 6.43259138e-02 6.39118850e-02 6.78162053e-02
      7.93908760e-02 8.99702162e-02 1.59293026e-01 2.74850696e-01
      2.74850696e-01 2.11208999e-01 4.26602289e-02 5.82781918e-02
      1.07123256e-01 4.02046144e-02 7.14367181e-02 1.33826569e-01
      2.74850696e-01 2.74850696e-01 1.53199270e-01 3.44732180e-02
      2.96860021e-02 4.10061963e-02 4.24244292e-02 4.08392847e-02
      7.33135492e-02 1.29870027e-01 1.94700032e-01 1.58669263e-01
      2.26765096e-01 1.11695424e-01 3.40653136e-02 8.54885057e-02
      8.16738680e-02 1.24385096e-01 2.65448838e-01 2.96391428e-01
      2.96391428e-01 2.96391428e-01 2.96391428e-01 1.02204211e-01
      5.19421063e-02 6.13690279e-02 7.53257871e-02 1.55878246e-01
      2.20964089e-01 1.32316008e-01 4.62310910e-02 3.88253368e-02
      3.97923738e-02 2.37492230e-02 4.75856662e-02 9.03852582e-02
      2.25957826e-01 2.96391428e-01 2.96391428e-01 1.07846573e-01
      1.44882724e-01 5.53749651e-02 4.40563485e-02 6.20323494e-02
      1.54493660e-01 2.64689118e-01 2.64689118e-01 2.64689118e-01
      2.16941983e-01 2.64689118e-01 8.88045952e-02 4.53592204e-02
      6.16556555e-02 1.34842247e-01 2.64689118e-01 2.64689118e-01
      2.07657218e-01 7.67315775e-02 5.60617112e-02 3.05210054e-02
      2.31335755e-03 2.39106119e-02 8.92671123e-02 1.82874367e-01
      2.64689118e-01 2.61967689e-01 5.10985106e-02 8.80595297e-02
      4.43905704e-02 8.85225087e-03 2.46393532e-02 1.19600564e-01
      2.64689118e-01 2.64689118e-01 2.52122045e-01 5.37833720e-02
      1.78509932e-02 1.90052427e-02 6.11542612e-02 4.26912159e-02
      7.01275393e-02 2.40217537e-01 2.53014505e-01 1.46826759e-01
      5.50875068e-02 3.07685714e-02 5.90361021e-02 2.53014505e-01
      7.67913237e-02 8.22605938e-02 2.14573756e-01 2.53014505e-01
      2.38565728e-01 7.54833296e-02 8.86145383e-02 2.11596802e-01
      3.17491479e-02 2.29032561e-02 1.19685382e-01 2.53014505e-01
      2.53014505e-01 1.66670471e-01 6.68197125e-02 2.93864124e-02
      3.38473544e-02 2.29592234e-01 6.22070804e-02 8.97656903e-02
      1.79693326e-01 2.53014505e-01 2.20820293e-01 1.80108458e-01
      2.34935477e-01 2.42457911e-01 2.05980882e-01 4.94890586e-02
      8.85592178e-02 1.64437801e-01 2.37945586e-01 2.35948980e-01
      1.06862128e-01 8.19495395e-02 1.15895517e-01 5.11801429e-02
      1.22618489e-01 1.72345966e-01 1.62698731e-01 2.37945586e-01
      2.37945586e-01 1.84064001e-01 1.64392114e-01 8.57153609e-02
      1.26799762e-01 5.46726175e-02 8.44859108e-02 1.22490317e-01
      2.37945586e-01 2.37945586e-01 1.97967663e-01 1.59271657e-01
      1.44351855e-01 8.02587718e-02 1.33666530e-01 1.59987643e-01
      2.06820682e-01 2.37945586e-01 2.37945586e-01 1.91759408e-01
      1.42782047e-01 1.25593722e-01</_>
    <_>
      8.27568993e-02 5.13997637e-02 7.71221370e-02 1.20166972e-01
      1.13319755e-01 9.60184634e-02 1.08985849e-01 1.57730848e-01
      1.10312738e-01 1.13079391e-01 6.85331970e-02 9.06432420e-02
      1.78202197e-01 2.41601974e-01 2.06032664e-01 1.75330773e-01
      1.74797326e-01 1.61766142e-01 1.43368766e-01 1.65345937e-01
      7.84001574e-02 1.69329315e-01 1.30159825e-01 1.14171572e-01
      1.40019462e-01 2.33086810e-01 2.02669218e-01 2.17850164e-01
      2.05525354e-01 2.41601974e-01 2.41601974e-01 2.41601974e-01
      1.93209514e-01 1.84942916e-01 1.82122901e-01 2.31871232e-01
      3.90246101e-02 3.51492204e-02 4.38490212e-02 1.33289069e-01
      3.62262487e-01 1.66608766e-01 7.48445392e-02 4.72379848e-02
      5.79954684e-02 5.68623543e-02 3.26704383e-02 2.03058831e-02
      1.20285153e-01 3.62262487e-01 1.57950103e-01 3.22013386e-02
      2.01844051e-02 4.38802391e-02 5.81062175e-02 5.21347411e-02
      1.58216521e-01 1.91287905e-01 3.62262487e-01 2.01461986e-01
      7.57494345e-02 2.93721054e-02 4.47523706e-02 1.26289546e-01
      1.40172308e-02 1.96700528e-01 3.62262487e-01 3.62262487e-01
      2.12562338e-01 6.70554414e-02 1.98979862e-02 9.74079445e-02
      1.00039497e-01 3.24593149e-02 3.60911340e-02 1.19516514e-01
      2.87806362e-01 1.31897718e-01 2.51663402e-02 3.05148140e-02
      7.44206607e-02 3.30182649e-02 2.00590864e-02 4.86961566e-02
      8.33473578e-02 1.71889499e-01 8.87795091e-02 3.91446725e-02
      2.39666495e-02 4.51206267e-02 2.76274502e-01 1.57551784e-02
      2.10761592e-01 2.87806362e-01 2.87806362e-01 2.79666483e-01
      2.24997029e-01 1.56891033e-01 2.87806362e-01 2.57556289e-01
      3.07798889e-02 3.25677469e-02 9.12912861e-02 2.23519653e-01
      1.10089727e-01 1.49455070e-01 2.09497422e-01 2.87806362e-01
      9.58296191e-03 7.57464999e-03 2.81364080e-02 1.59084707e-01
      3.29304606e-01 1.68472797e-01 3.56029943e-02 8.48020241e-03
      1.73740424e-02 6.37189718e-03 9.45190061e-03 2.00492702e-02
      2.41084144e-01 3.29304606e-01 3.29304606e-01 2.69895475e-02
      2.00408651e-03 1.30848642e-02 1.54011518e-01 4.11651619e-02
      1.45352297e-02 1.67364240e-01 3.29304606e-01 1.51824474e-01
      5.46638891e-02 1.06426239e-01 2.00265646e-01 4.69570085e-02
      3.67587395e-02 1.69974510e-02 2.82607287e-01 3.29304606e-01
      3.29304606e-01 4.37645391e-02 7.02850595e-02 9.24936458e-02
      1.83700453e-02 2.55204234e-02 2.84286030e-02 1.88216105e-01
      3.09701324e-01 3.09701324e-01 6.73181638e-02 1.67262331e-02
      3.17904763e-02 4.31547351e-02 3.71488854e-02 3.65804993e-02
      2.30385959e-01 3.09701324e-01 2.46591121e-01 6.74689710e-02
      1.98698845e-02 4.13414463e-02 4.88643199e-02 4.82950769e-02
      3.76803465e-02 2.04380840e-01 3.09701324e-01 3.09701324e-01
      5.52401356e-02 9.49575901e-02 9.11750942e-02 5.62697500e-02
      8.23664367e-02 4.76091504e-02 2.21250296e-01 3.09701324e-01
      3.09701324e-01 1.33484185e-01 7.23114386e-02 6.94737136e-02
      2.14008410e-02 1.63829643e-02 1.75793823e-02 1.87694594e-01
      3.38817477e-01 3.38817477e-01 4.34291624e-02 9.87516716e-03
      1.34922182e-02 4.06242833e-02 4.83025499e-02 2.83548385e-02
      1.00171603e-01 3.38817477e-01 2.26757243e-01 5.45731038e-02
      3.82179618e-02 4.52457555e-02 2.57695951e-02 3.19645405e-02
      4.16700058e-02 2.76447326e-01 3.38817477e-01 3.38817477e-01
      1.49858773e-01 1.64172519e-02 1.90425999e-02 4.13620435e-02
      3.70244831e-02 3.98224853e-02 1.83825269e-01 3.38817477e-01
      2.09688887e-01 9.56365243e-02 3.63677032e-02 2.90092919e-02
      1.62150562e-02 4.25975434e-02 3.36966366e-02 1.84238404e-01
      3.69613886e-01 3.16744298e-02 1.42687410e-02 2.04721447e-02
      2.08183043e-02 4.99161147e-03 3.14553529e-02 7.48318806e-02
      3.69613886e-01 3.69613886e-01 1.12592392e-01 8.07018485e-03
      1.16750440e-02 5.25532104e-03 1.31556056e-02 1.66464634e-02
      5.71291409e-02 2.29972079e-01 3.69613886e-01 6.62149638e-02
      2.73588523e-02 2.76145227e-02 1.41069461e-02 1.70336962e-02
      1.07360920e-02 1.51264921e-01 3.69613886e-01 3.69613886e-01
      1.72993600e-01 2.32197195e-02 3.34742293e-02 1.77664086e-02
      7.63755292e-02 1.09154463e-01 4.88169193e-02 1.19715840e-01
      1.08445019e-01 1.06649891e-01 1.89372897e-01 1.85658485e-01
      1.82429373e-01 1.46423042e-01 1.28788784e-01 1.70878112e-01
      2.27681756e-01 2.27681756e-01 1.66886732e-01 2.22136065e-01
      1.39724255e-01 2.00007409e-01 1.89658329e-01 1.00590236e-01
      5.74824475e-02 6.65991157e-02 8.63856003e-02 1.01283565e-01
      1.33499831e-01 1.58822864e-01 2.27681756e-01 2.27681756e-01
      1.14558525e-01 1.54291347e-01 2.27681756e-01 2.27681756e-01
      1.87418997e-01 2.03572363e-01 2.03966081e-01 2.27681756e-01
      4.43429835e-02 5.65929674e-02 9.48982835e-02 1.87129289e-01
      2.97061861e-01 1.49537563e-01 8.55151862e-02 1.74642969e-02
      3.17303017e-02 5.08210212e-02 4.94177341e-02 1.58845365e-01
      2.97061861e-01 2.97061861e-01 1.96138754e-01 1.49226904e-01
      6.58915788e-02 9.11151096e-02 6.79791793e-02 6.41685128e-02
      9.11697969e-02 2.79641956e-01 2.97061861e-01 1.80047646e-01
      1.10301867e-01 4.36119325e-02 4.33806516e-02 4.85205092e-02
      7.22999126e-02 7.42818490e-02 2.50181824e-01 2.97061861e-01
      2.22169280e-01 2.23467201e-01 1.63916200e-01 1.62823722e-01
      1.17198423e-01 4.58393954e-02 9.30855796e-02 2.27973476e-01
      2.44883880e-01 1.27693370e-01 2.06587151e-01 1.46397427e-01
      1.95164159e-01 2.41099298e-01 6.41498417e-02 2.13599335e-02
      3.78523916e-02 7.48258755e-02 5.25293015e-02 1.14786476e-01
      1.85501233e-01 2.44883880e-01 1.69352725e-01 6.16508685e-02
      4.45888601e-02 1.20562047e-01 2.43208587e-01 1.05727337e-01
      2.44883880e-01 2.44883880e-01 2.44883880e-01 2.44883880e-01
      8.79421756e-02 3.62544507e-02 5.08081727e-02 6.58571944e-02
      8.65036175e-02 2.44883880e-01 2.44883880e-01 2.44883880e-01
      1.53410032e-01 5.41754998e-02 1.48570305e-02 5.13495505e-02
      1.05448261e-01 7.16164932e-02 6.14591092e-02 1.31698653e-01
      2.54033417e-01 8.53674561e-02 7.83801302e-02 4.50727865e-02
      1.21003009e-01 2.00198382e-01 1.39381945e-01 6.47012517e-02
      1.21679455e-01 2.54033417e-01 2.02000022e-01 6.51116073e-02
      4.14733216e-02 1.33839935e-01 1.38971969e-01 1.51706293e-01
      2.54033417e-01 2.54033417e-01 2.54033417e-01 1.32564977e-01
      9.79770496e-02 1.38293445e-01 2.54033417e-01 2.54033417e-01
      2.19106138e-01 2.54033417e-01 2.00134233e-01 2.54033417e-01
      7.07299709e-02 8.09674114e-02 5.84936403e-02 1.07396521e-01
      2.46174306e-01 2.25179091e-01 1.26141787e-01 1.30287185e-01
      2.28419080e-01 4.99206930e-02 4.43357676e-02 3.07970457e-02
      8.80757645e-02 2.56925374e-01 1.82174295e-01 1.20852746e-01
      6.97774217e-02 7.23806620e-02 7.24742487e-02 1.27217948e-01
      1.31781906e-01 2.62356669e-01 2.62356669e-01 2.62356669e-01
      2.62356669e-01 1.52684569e-01 2.62356669e-01 3.88537608e-02
      6.95413873e-02 3.02221980e-02 8.51278007e-02 2.62356669e-01
      2.62356669e-01 2.62356669e-01 7.04653040e-02 7.20066950e-02
      1.52348578e-02 2.46497374e-02 5.33134006e-02 3.03443402e-01
      3.08933109e-01 2.70541787e-01 1.31091982e-01 4.32776175e-02
      1.85868107e-02 1.12776523e-02 1.08378837e-02 3.16664428e-02
      2.46399671e-01 3.08933109e-01 1.55409843e-01 8.17508399e-02
      2.08169259e-02 8.36807862e-03 8.54718033e-03 3.57267261e-02
      7.43666142e-02 3.02830279e-01 3.08933109e-01 3.08933109e-01
      1.11929402e-01 4.70755659e-02 1.06509198e-02 4.20527207e-03
      2.12804899e-02 5.66750951e-02 2.47743905e-01 3.08933109e-01
      2.38276660e-01 4.68016192e-02 2.20902357e-02 1.01029398e-02
      4.07310156e-03 3.31660989e-03 3.92618217e-02 2.15744078e-01
      3.42260957e-01 9.31625590e-02 2.40265038e-02 1.15735270e-02
      3.26282368e-03 1.00104911e-02 3.91242234e-03 9.08063501e-02
      3.42260957e-01 3.42260957e-01 2.03809410e-01 1.57148428e-02
      1.27278501e-02 1.02909468e-02 1.85218116e-03 6.98131602e-03
      3.05504985e-02 2.79032558e-01 3.42260957e-01 1.56355381e-01
      2.40497310e-02 1.22298719e-02 7.49316532e-03 1.33600784e-03
      1.62380922e-03 2.55251564e-02 3.42260957e-01 3.42260957e-01
      2.84490973e-01 9.91386455e-03 3.81971477e-03 3.87101644e-03
      2.42291838e-01 7.85242468e-02 3.81635800e-02 4.46880832e-02
      5.45644723e-02 9.63162854e-02 5.93856089e-02 9.08640176e-02
      2.42291838e-01 2.42291838e-01 9.28202197e-02 1.28729358e-01
      1.94136009e-01 2.42291838e-01 1.64518535e-01 8.32267702e-02
      2.19786152e-01 2.42291838e-01 2.17297226e-01 5.71048893e-02
      2.55376287e-02 8.07838663e-02 1.29171580e-01 1.05885021e-01
      1.03148773e-01 1.51506066e-01 2.42291838e-01 1.96858600e-01
      1.15376800e-01 1.06768519e-01 2.03548655e-01 2.42291838e-01
      2.42291838e-01 1.61434785e-01 2.00732291e-01 2.42291838e-01
      1.10506140e-01 4.51807976e-02 1.10684119e-01 2.96645373e-01
      2.96645373e-01 2.05423638e-01 6.68392926e-02 9.98336896e-02
      1.02064505e-01 3.01670693e-02 3.14167589e-02 5.62537126e-02
      2.24160999e-01 2.96645373e-01 2.23908290e-01 8.67989659e-02
      7.78629109e-02 8.04725811e-02 7.29764998e-02 8.96148011e-02
      8.05094615e-02 2.96645373e-01 2.96645373e-01 2.96645373e-01
      9.49045122e-02 9.87116471e-02 1.15440108e-01 1.60219576e-02
      4.40460891e-02 2.88178716e-02 2.57108808e-01 2.96645373e-01
      1.97499111e-01 3.47158536e-02 2.55135335e-02 8.09155963e-03
      2.00717732e-01 4.77452911e-02 6.52618483e-02 1.23870552e-01
      2.87543982e-01 1.73372582e-01 2.41820917e-01 2.87543982e-01
      2.87543982e-01 2.87543982e-01 7.78433830e-02 4.58943844e-02
      8.30070898e-02 1.04645662e-01 1.17862232e-01 2.87543982e-01
      2.87543982e-01 2.87543982e-01 2.81034093e-02 3.28731909e-02
      4.32858802e-02 1.76505491e-01 2.87543982e-01 1.24561578e-01
      4.31735814e-02 1.21675981e-02 1.50063513e-02 7.46812522e-02
      5.90240583e-02 2.81829555e-02 9.90729630e-02 1.98493287e-01
      1.10729128e-01 1.06640667e-01 6.02973998e-02 7.79734626e-02
      1.57873586e-01 3.42702046e-02 3.35689597e-02 1.08688802e-01
      1.93837762e-01 1.37032524e-01 2.89641291e-01 2.22256839e-01
      2.31358185e-01 1.25353873e-01 7.13935196e-02 1.12562954e-01
      2.89641291e-01 2.89641291e-01 2.05279425e-01 2.89641291e-01
      1.20296016e-01 2.03923285e-01 3.50006446e-02 1.61073375e-02
      1.12127243e-02 6.72788918e-02 2.89641291e-01 1.06188968e-01
      8.18811879e-02 3.83141227e-02 4.50993776e-02 5.43115772e-02
      5.52484728e-02 9.23588797e-02 2.79921383e-01 2.89641291e-01
      1.72603473e-01 1.03536651e-01 3.06333564e-02 4.24824320e-02
      5.85816875e-02 7.75522739e-02 7.02940747e-02 2.29659826e-01
      2.69156903e-01 2.69156903e-01 2.39116713e-01 4.10444997e-02
      6.40055090e-02 1.81950815e-02 3.41156460e-02 1.64614674e-02
      6.27848506e-02 2.69156903e-01 2.69156903e-01 2.66245872e-01
      2.71987170e-02 1.04015637e-02 7.86858499e-02 1.11617669e-01
      1.50915742e-01 2.69156903e-01 2.69156903e-01 2.45508730e-01
      1.02089085e-01 4.64570746e-02 2.27162261e-02 5.07003218e-02
      5.64600378e-02 1.07897893e-01 2.34199211e-01 2.69156903e-01
      2.69156903e-01 1.31925181e-01 6.78367689e-02 3.41010168e-02
      1.71004410e-03 1.45820742e-02 4.84602153e-02 2.30369195e-01
      3.18678468e-01 3.18678468e-01 1.44185692e-01 2.85073332e-02
      2.35837605e-03 8.76330677e-03 2.36149020e-02 6.00225814e-02
      1.93280563e-01 3.18678468e-01 1.51422292e-01 1.98164340e-02
      2.79262941e-02 1.34054804e-02 1.64610110e-02 1.01435250e-02
      1.29559636e-01 3.04289848e-01 3.18678468e-01 3.18678468e-01
      1.32562548e-01 1.13346666e-01 7.29799196e-02 1.28123555e-02
      2.95651536e-02 1.09865479e-01 2.32738405e-01 3.18678468e-01
      1.60619304e-01 4.61138338e-02 5.10142073e-02 3.25765088e-02
      4.66669258e-03 9.80593730e-03 6.79910257e-02 2.80350238e-01
      3.29214066e-01 1.12329267e-01 1.50788110e-02 1.98082048e-02
      1.40052503e-02 1.35630125e-03 2.10803421e-03 6.26045838e-02
      3.29214066e-01 3.29214066e-01 2.53822178e-01 8.39780178e-03
